1.217173641384072491e-07,3.897459598650066389e-13,4.275844999950231120e-08,0.000000000000000000e+00,-4.433804592654968272e-07,-1.617207119442132026e-07,2.401953764165232930e-30,-2.288591855328387452e-16,2.237857748045693231e-08,8.605350343128560852e-13,-2.385672196503547971e-08,-2.605576916888987305e-10,-7.016092209269930905e-13,4.842053599871838846e-07,4.307190513219191532e-08,5.479975084576343750e-08,1.827009789576648667e-11,5.591490692211033332e-22,2.783131810486873878e-08,-6.972230985250254651e-08,1.032016801411722020e-58,2.571615791100174219e-07,3.068559176575412259e-10,1.785752704900253511e-08,2.399366817352881197e-07,1.090262914825372054e-99,-3.228906346479868470e-07,-4.144214507433612715e-40,4.519114917912317894e-104,4.446673436930933622e-09,0.000000000000000000e+00,6.682917266956688743e-10,9.658478574350067313e-12,-2.697739870203021337e-98,-1.233008916385634533e-09,1.431535064254831475e-16,7.535169258263057361e-08,-9.132910598803728157e-14,-2.403030997109641383e-08,-1.763578244596060606e-12,-7.935795785694003435e-08,7.847054102264528976e-55,4.983228802163749382e-10,1.485043058363177670e-13,-3.121817158294120225e-07,-2.167223750086752053e-12,-1.175399045744070757e-10,6.757036164981260309e-08,-3.304392883519353921e-11,3.900807173631257938e-08,-8.711473733303037421e-08,9.993579637174384985e-35,-3.186888458721550560e-22,-5.878437754348828375e-10,-3.585358172547088591e-10,6.917464584428182969e-14,8.223933428606215733e-08,-3.979358020538743464e-08,2.174516122774239739e-146,-1.129981296508317761e-148,-6.018952720485923012e-20,1.129741262805317556e-06,-1.080377759839917249e-07,3.716127767735362903e-81,9.912959534785150175e-17,-1.899932668146303154e-08,9.540771241027289240e-08,1.712260105120752014e-50,3.365141749736290971e-21,6.077939040321671549e-81,8.242582960226949076e-08,1.300975991587535890e-06,-7.014953677714374816e-12,6.714667042107632085e-40,3.541727368299670065e-07,-1.556819391529710743e-07,7.647053806176224079e-99,-3.457365540668165175e-07,5.253815766378396416e-08,2.590737810987401445e-33,-1.359931091571046139e-13,7.998987189003912824e-09,3.364634832342341817e-09,1.820933240309656705e-07,-6.698918522988086037e-35,2.442436951681978412e-11,0.000000000000000000e+00,-1.830632102908458782e-60,-6.491264625662541574e-12,2.173416420294020091e-08,4.195472109227705282e-10,1.353556617582829382e-12,-7.706874612289575079e-08,1.170709625161943794e-08,1.071933367414876263e-07,-1.291954851211109936e-13,0.000000000000000000e+00,-1.007814826123864102e-08,2.325518679189134659e-09,2.511955335776642649e-10,9.021470820928395140e-08,7.773187149481889258e-09,-1.815320401692481861e-09,1.275906521548984775e-18,-6.237825297482791825e-07,3.684661117183997273e-87,-2.490809773418354572e-12,-1.433270721035998983e-08,2.789108618904219938e-09,5.075319448134567135e-09,-1.044420400184345365e-07,-6.819223440503207852e-08,3.580549597454458202e-201,-7.725921855218924120e-07,1.816935954148016952e-11,-1.004105503955489679e-18,1.740142819470714022e-07,3.596149996966586525e-16,-3.953072633413417351e-50,5.301598331807991276e-13,-4.802441503783203771e-13,2.896739582406840839e-20,-9.455511328382366922e-09,4.227614342945316552e-08,1.962117690636162908e-94,-1.109124967425706522e-12,2.573811656025639641e-12,-2.121702503163376504e-19,2.049969020857461609e-10,-4.324433058679775684e-08,5.419282531127295620e-09,-1.458106883714909185e-22,3.323479769596397987e-19,-5.520400315791576074e-88,-1.940835146067496818e-16,8.375770872466616466e-09,1.960662036181130408e-08,7.293882222724177771e-56,-1.700049787879654003e-10,1.427408516592420533e-09,1.898905768597640056e-17,-2.059353703364121933e-17,-7.295264505796508713e-14,-1.956978866518125849e-125,3.143927090046410306e-07,2.883999323743775445e-08,4.668804836667537776e-08,2.932889888924072676e-07,-2.963873015291866131e-13,4.204844826873395359e-09,3.603663941277014786e-07,2.864010826554732513e-13,-9.510705818069844008e-25,4.201007394706034025e-11,2.009687605202651346e-48,2.249174161525035194e-07,6.567025891561144908e-07,1.179796407941453063e-107,9.640294571744750600e-19,-2.470892438872624905e-07,2.356786234568720677e-20,8.756167587481944662e-12,2.818259894709317220e-07,1.488040744814667663e-15,2.860581426082576038e-09,7.656366245283596721e-07,-5.278521844987375917e-07,-8.457127148208028437e-07,-4.966272134559636282e-07,-1.657634363621278631e-11,1.519025141776200043e-208,2.253939656876392960e-13,-3.396991626901185746e-18,-3.479934825601641427e-08,-3.365636972071215185e-18,-8.635124828519564672e-13,2.561403745088261589e-15,-3.365682988995693409e-08,5.010016624595222451e-54,-5.619203887962121411e-32,-4.337493106708519689e-12,-1.318243276458419256e-20,3.125921153507369058e-08,-1.341237880127220495e-12,5.924407772046436461e-51,-2.249696677715325052e-08,3.531062061834794778e-07,3.178528902638457955e-53,1.990885227444187207e-07,1.085104344529146838e-17,0.000000000000000000e+00,-4.243225103754313498e-18,-3.677704708830234724e-11,4.308165036104424269e-08,-5.294709597027561714e-09,-8.604951669250737424e-08,-3.283624345761115782e-57,-2.602087806617875235e-07,-8.701350773947996308e-50,-1.356173148483114644e-20,-5.703352638955204184e-92,2.574747523086054112e-07,6.917432606057192088e-08,-2.402882742693508941e-08,1.312692335566979746e-39,-1.961655251549779211e-08,-1.618900726177832968e-11,3.324273540311946426e-63,-1.592871511969985224e-16,1.539454728341587121e-15,1.098977389221731261e-26,3.319795066253616127e-07,-4.366718318930992571e-14,-3.830260274364049639e-62,8.467395989674885457e-129,1.497636190854859287e-15,8.786723972669008814e-09,1.340386052027717432e-07,4.133544226506175519e-16,-1.431880179114639365e-12,-2.121167385276825691e-08,-3.241917910536518924e-08,-4.050531398167539864e-09,-6.112443386240231875e-18,2.382625491642155104e-80,6.928219513226743053e-07,-6.789483504420248036e-07,1.973643025353504323e-10,2.932226224629272593e-12,1.672141357451578042e-08,1.108946244729848925e-07,-1.380755098852031823e-11,2.481985402012117057e-09,-4.421546084934272364e-08,4.335175231026449296e-07,-1.108152472307893503e-10,-3.602194511284118881e-07,-3.267038971775820277e-07,-1.940930120643614815e-10,-4.728185611955493016e-11,-5.033429722817045107e-08,-5.492207146732276097e-08,-9.873135115195336160e-50,1.118286417198391029e-27,4.648951873796723789e-08,-1.177852209091157736e-12,3.240072879188060054e-10,-4.324159821364815452e-08,-8.903080699937294122e-11,-1.304625983595699787e-14,-7.997638124845312680e-08,1.551790150583257770e-14,1.010042300628660457e-11,-5.839290784476348519e-56,1.102790216404262553e-11,1.893009169731892157e-08,1.688255916028747062e-11,-1.126141540952207619e-105,-7.734405174433571898e-253,2.638935333658373000e-13,-1.062850224191059885e-07,5.645354575003439791e-09,-8.301898905445509661e-08,-5.616597869286581170e-08,1.206103427723330744e-07,0.000000000000000000e+00,0.000000000000000000e+00,5.471242732015347416e-07,6.728231291876465419e-10,-5.428970081547842762e-09,-8.117190947022007332e-187,-3.185022883485205484e-08,1.040818986755368524e-07,-7.118671321662119187e-13,-2.520033224872946798e-07,-2.701517291163756642e-12,-1.607614960466380496e-06,-1.348638623717977106e-18,1.019005253152089372e-65,-4.494489479024457199e-07,-1.082407618447719147e-07,4.366607602675479010e-07,-3.040028755263851885e-12,-1.992629345322800877e-09,-5.264084142586352280e-08,0.000000000000000000e+00,-8.753020341735724314e-31,1.080259621875890071e-08,-3.680631872513682984e-07,9.782540645735458425e-63,-2.558468965407995750e-08,-1.208165795431239288e-07,4.647973392214209919e-09,4.018733484337611577e-19,1.340895408149512257e-18,1.328347722421155371e-67,6.864583416131888515e-11,-1.456280280712804971e-08,4.477913552192985043e-10,3.616253717683013425e-15,-3.011309974159032363e-08,-6.347919995522649858e-07,0.000000000000000000e+00,1.347591139978570133e-12,-9.907547116237541861e-09,7.342238426399452119e-15,5.069882657263297680e-07,-1.546785940695609739e-08,-1.180156019053076308e-08,1.560772751024821923e-08,6.602064604979951689e-15,-4.956323102471840799e-07,1.553386904526781878e-09,-1.866935908213890900e-07,-5.519069524621677717e-34,3.174932436984013519e-74,5.564559680196407460e-13,-6.453383693063526263e-09,2.469914197165514498e-12,9.493292974832747872e-48,-2.610351202540356030e-07,6.929923209337072820e-41,-2.448947507495497682e-07,-1.604681023066795464e-15,1.330547229977692142e-33,4.477243497576894691e-11,-4.482761484373610858e-08,1.117627901654357670e-13,4.986104502878516646e-15,-2.887553964456272904e-07,2.484345819136101104e-07,-1.204135130473958732e-09,2.170436897419350542e-13,3.440800628857398858e-08,-1.408757255161737836e-07,5.798323678398637214e-08,7.815281146330870611e-08,0.000000000000000000e+00,-5.900591368260701691e-09,1.173794232187863600e-53,7.142090790915412649e-16,-7.072276696617610886e-07,-1.055065775199366584e-14,1.817464132238232571e-11,-1.401799346895903921e-20,-5.939427368987431747e-14,1.047189927727096412e-07,8.375265688771969028e-08,-9.654290537123086933e-08,2.929071581435225311e-13,-3.025871266472550521e-23,1.445300471438394668e-50,-1.500374485722357290e-138,-1.776607124348512098e-08,1.110575577231111301e-11,-4.167658150350152567e-19,-3.811765574217751793e-08,-2.805940668828178623e-19,-1.279354453194124129e-09,1.698343287742281122e-08,-2.782946049355294120e-08,1.709110745615410655e-10,3.051862639048962478e-07,2.746194929700002442e-08,0.000000000000000000e+00,-1.963294351991422134e-19,-4.128584197232691257e-12,3.197911492298500686e-13,-8.275645016467584545e-09,5.152569171302202673e-09,-1.756833095442189679e-08,4.215572543118873924e-14,-6.180719035273449664e-23,2.184523812522518592e-10,-4.332678300121260475e-68,-1.262242903909585279e-10,-6.052144618848503018e-09,5.331330540237257067e-21,1.701919675515053678e-08,-3.578296982532190498e-11,3.477440135560502788e-23,-2.134165739393558301e-07,6.562752474144901080e-09,-1.175703612291719460e-13,2.033111866735138354e-12,-3.332168396790673679e-36,-9.632860887248235256e-08,1.445898872926492551e-12,5.307433283908415443e-07,0.000000000000000000e+00,3.113604291112111093e-07,-4.141364608440135182e-17,-3.924211260218913644e-14,-1.258616125743271308e-07,-2.175985457267858974e-12,-4.027623482919634511e-07,3.761488942107000699e-45,-2.562816781170089296e-60,-1.955574287785642572e-63,-2.036117682677362668e-17,-2.978014465528268370e-07,4.376330500907958188e-09,1.598859505607297540e-11,-3.988094208776597057e-13,1.133448476775028482e-06,-1.151709811644955090e-07,-1.132854469631396453e-60,-8.946895414291261369e-08,6.734548245775549252e-09,1.182841635064859503e-71,4.590857579639565126e-09,-2.470936017611817748e-07,4.093010117214047994e-08,8.892662335214287857e-08,0.000000000000000000e+00,9.723380441967568848e-11,2.123470962279606201e-45,7.830525909682559210e-08,1.385119421558415565e-08,1.934696900845620107e-07,-6.910374014652371808e-41,-4.868128406544615526e-34,1.760283418179888087e-07,1.042379218521279361e-13,-3.866505588819483440e-08,6.375139548913237611e-43,-6.543833698133322062e-11,1.391907841097374257e-08,-2.907526714948742157e-07,8.298681427062264673e-08,-6.218304372684319943e-09,-1.262588662859116501e-42,1.872277136171675600e-07,-9.503279005024963486e-77,-2.327151570714800868e-12,5.694434465425305872e-07,2.342301592425317459e-08,-5.311692216774585467e-25,-4.517156448080811585e-111,-5.321051001562216461e-09,-7.411464813674508426e-08,2.029628788148861335e-10,5.728089793951795232e-08,-1.251584790915228168e-09,2.971741670972692221e-07,1.903039332686889125e-07,2.051710720566858200e-21,-8.451837450276548253e-11,-1.909318678894153115e-21,-7.666634486718973218e-21,-1.020873186918321939e-07,-1.105846458183869071e-18,4.142600618908048717e-07,1.829554602211749408e-08,1.132426334829731795e-09,2.512633528683079510e-07,-2.235687195266218428e-15,4.663075113409093955e-08,4.611470931977386651e-53,-6.921917080042794234e-159,4.310267818257782158e-08,3.991804549677468926e-11,-2.739729201506337075e-07,-1.524518765070773784e-09,5.210855049624633802e-08,1.598158636313692690e-86,1.630462250254247213e-10,6.153559219890487404e-08,-3.746467154697631171e-234,-6.028946363381143796e-08,3.839001023101799606e-07,-6.455166918450335797e-17,7.617855751263882310e-08,4.921354844304329258e-09,-5.725284451786898351e-07,3.976436638065873412e-07,-2.358558485463542658e-12,-1.657265487168335366e-58,-6.977010891863576860e-48,1.826767077916731172e-23,-1.521650198390393674e-07,4.387178276244619714e-15,-2.077495945286922375e-07,2.319694386131310803e-09,1.762015678418099000e-07,1.844953580672512002e-07,-4.213521848386884682e-17,1.796320433175745399e-75,-1.267591001828945895e-29,-2.329562003146552128e-07,0.000000000000000000e+00,-1.163017847069755634e-193,1.527280265859357604e-07,1.907200058116064359e-09,3.545341337000488370e-188,9.779114293999914524e-08,1.934622225448187945e-11,3.137313814223041077e-18,-1.983384989468885353e-17,1.267376420559614358e-09,-8.286522942944152632e-10,4.579540976003668955e-20,9.810766652843694831e-21,-5.712378832716617044e-71,7.245625201255879938e-07,2.604243602068463220e-14,-1.910338860275074664e-08,-1.872968987879571556e-09,-1.377701525067339313e-07,-1.655577894351419072e-09,-1.391488870471381746e-09,-2.916046452860142980e-11,-2.655716912865352664e-07,-1.831833429969806982e-157,-4.605741719920855845e-11,-4.703743573759650540e-11,-8.538888367586822928e-40,2.496216626419089520e-08,-2.026216059756805058e-09,6.693516062515105994e-20,-1.205865404266411161e-11,3.678307862710121732e-08,2.270897692810871632e-102,-1.242969553632334201e-08,-5.014186550737879400e-10,-6.539526942181411672e-08,1.737043347820141412e-07,-4.933902304448653436e-09,5.503971979295816820e-15,-9.545048650319057158e-07,-3.612574205893146111e-22,5.368213221583385845e-29,-1.093986959399550799e-08,1.427940959035979681e-07,9.393502920670350948e-50,-3.755742996389703144e-15,1.140721051495563469e-07,3.209460410027755803e-09,6.160852873014971475e-28,0.000000000000000000e+00,1.598842515090169532e-18,3.451291054416269413e-07,-2.680862213725893226e-07,1.731556915700709991e-60,1.581129413225166617e-09,2.298445535946937294e-78,-9.998718065612208411e-14,2.108491081094495430e-11,-1.523439331094402560e-07,7.373425760431045990e-12,-1.723305046059453845e-07,6.404744554060390649e-08,7.251842813972920626e-12,-5.161123053253549511e-22,7.422991904032809790e-16,3.986265612934676231e-08,-5.581888027167798602e-11,-5.770832423308669027e-87,3.323767939824466661e-16,1.233725685161567488e-37,1.834056678664706838e-13,1.333306477741851835e-07,-2.067893632541215492e-17,1.805447931875748668e-123,1.602983526564623313e-11,1.401186179770889003e-10,-6.499296033093316979e-12,-5.351569786981298295e-10,5.384710250197351165e-13,4.578302042873827310e-07,6.304438916721716187e-11,-3.475346101942944445e-76,7.884788299566444345e-09,0.000000000000000000e+00,7.507460016485908840e-08,1.098680840953447700e-07,1.003775071827320578e-07,0.000000000000000000e+00,-8.990085387368744118e-09,-4.513512544690335602e-07,1.443119406361452712e-07,-6.519872084934282309e-08,-1.562881022879590586e-47,1.263580346048660852e-07,1.745139856358936709e-13,-7.691794016434587303e-14,-1.111234929572210214e-07,1.891602191705243785e-250,3.582414380924653945e-19,-4.545858165772581114e-32,3.619156818668302121e-09,2.989266619539711393e-178,8.717115683244657695e-09,4.490171522752700629e-07,-2.160823799546325622e-07,-3.649758522501133886e-07,2.156428659446829990e-09,0.000000000000000000e+00,-2.169611123112511478e-21,-1.975249049887551046e-08,3.755743905273492238e-08,-2.530101240810033889e-07,2.216749234353265647e-07,-6.580945328492978241e-61,-4.588320018875990813e-08,-1.368409739134911212e-10,0.000000000000000000e+00,-1.787466169122785690e-12,8.009727674027171133e-08,6.731183586707906572e-101,-6.590827138406750295e-08,-1.759969977315007649e-10,2.267652503366077866e-14,1.696027825611338475e-13,-5.982631522827785698e-40,-1.797760314240018475e-22,1.134300915724633235e-21,6.482978079450204077e-11,-1.838734216171525480e-16,-6.189871884706308994e-12,-5.133306791251163016e-08,3.329215364955761664e-07,-3.432358349406773999e-10,6.067303578336677785e-07,4.372718626361952928e-10,9.333596981318417904e-16,-3.833148198482497863e-09,1.367570616249814283e-07,9.910162948075544018e-08,0.000000000000000000e+00,-1.548869215647355177e-12,-2.255395317025878225e-07,1.989728248249449017e-09,-1.536789208942751284e-12,2.566951242653191177e-08,-5.964329724210168838e-31,1.810389751879053119e-07,0.000000000000000000e+00,1.422509721937975208e-11,-1.772959023092145599e-14,1.460940321540113954e-25,2.167358571115864036e-119,-3.601403337296387089e-14,-4.210037626440507055e-15,-6.980295563394552510e-203,1.602500730308008388e-14,0.000000000000000000e+00,5.711306084130443785e-10,6.435110762279015552e-08,2.928192368167069233e-07,-8.814773516217402441e-10,2.573325287133978154e-09,3.360845549157008809e-07,2.546696222530808933e-07,-1.097784343835130048e-07,1.218603339979594230e-134,-4.165398396019287449e-104,1.341106895500322982e-08,4.056520017934181047e-16,2.871645054020831298e-110,1.432702983999020357e-15,-3.028196022878872221e-07,4.233368250391590190e-10,1.254015214404373775e-09,1.878752228728526837e-43,-2.277688213355601079e-08,1.702866156446526633e-07,-1.001309514817374989e-29,9.267379480216609286e-07,-1.037358146865466952e-10,-9.417972461013791417e-08,-6.256548415319182728e-35,-5.504074055965133445e-07,-5.631479625506183623e-08,3.383281685249109147e-10,1.043477557621404999e-07,1.123243028993375454e-16,2.200460544948561241e-07,-6.887251993696104518e-09,-6.059349211257296814e-12,4.726315278809786708e-09,-4.326373321126217635e-07,2.221923095936308761e-08,6.437556499133242435e-13,2.632048606155842129e-10,-1.007471714422445205e-239,7.857928908206596982e-11,6.439759675713049656e-36,2.314971798052194958e-07,8.896404477829258783e-194,7.573413066174080906e-12,5.335699988347369657e-08,-5.184603578177579246e-47,3.179493065852628733e-18,0.000000000000000000e+00,-6.174530389145451026e-12,-2.296335465692901003e-07,-7.819770565644984248e-160,-4.264677549947475246e-173,-2.878769051486368688e-07,-3.000288088812932369e-11,8.454980463201876534e-13,-6.969348452092904010e-16,-2.680658029519210531e-08,-5.837875130018765549e-08,1.293091613569587210e-10,1.102881042120044171e-28,8.109014080807713553e-15,-1.679530784866761057e-12,-3.017809603477359643e-07,7.560993393997597524e-08,5.472831133170831317e-09,-1.615918754322448812e-15,1.718169979153057008e-11,3.656594010595685524e-16,-8.569085403762483889e-12,2.767804768146470664e-07,-1.970013229791020697e-09,-9.741513010835343817e-09,-1.831933893635553550e-07,0.000000000000000000e+00,-1.386006289013352885e-07,-2.810862847911100150e-09,-1.075493797586425819e-11,5.711906671502380674e-08,0.000000000000000000e+00,-1.688849219493385225e-09,-5.233401231009296626e-08,-1.747296495254894658e-14,-7.122628035408178348e-07,-4.316014422037308380e-65,8.629829387110904824e-18,2.046705969029779065e-12,-1.462132334132270741e-11,1.784829939356832173e-87,2.166467917756789486e-07,-2.571628524215665810e-07,3.172340012592852861e-26,2.184820761484156786e-07,-9.599461668506004226e-32,-1.499241528429655829e-07,-2.661003032747811222e-08,-1.777149375852399522e-12,-1.637735721390797168e-07,2.411689672787696542e-33,2.875924850668794495e-08,-2.030441615227532990e-215,-5.287130805413075520e-08,-5.371833727088775916e-13,7.579072789710374203e-07,3.671837662580215705e-23,5.341885434766580699e-11,5.545282524468026155e-07,1.087658640285177554e-08,-1.427249181031719369e-12,3.933997697587314282e-08,1.620251849285638306e-13,-1.192972369635616474e-07,4.706138039271387548e-12,-3.673324205468808333e-17,8.861900400888217759e-13,3.765618236117060985e-07,0.000000000000000000e+00,-4.264037055296033260e-117,-1.020646794551788027e-10,0.000000000000000000e+00,5.506179879560004471e-07,-4.251949327937913249e-40,-1.993628323845178247e-113,3.781416306503206829e-10,2.654271537323049393e-07,1.523822212641303388e-07,1.479373059462342741e-07,-1.965769858450750231e-08,-6.349757504531011342e-11,2.514022048499684879e-07,-4.948256542720429371e-08,-1.570340558184687969e-16,-2.113503062989845990e-38,3.582997348275693082e-08,9.787171569150417504e-08,-5.239280163591546188e-08,-1.852085947934900874e-286,4.990755757507083185e-18,-8.902144615400814516e-10,-2.498448241064867008e-07,1.191081759885526807e-07,-2.197167092439822665e-07,-6.995923797485012999e-13,1.766752282189767429e-30,-3.091044278137629923e-13,-6.008036341780449328e-19,-2.399368263255352730e-12,-1.562575886095344741e-07,2.141191706420883484e-42,-1.786067154995618981e-08,-5.369384214486075271e-07,3.218512505335296664e-14,-5.290317328937555784e-08,-2.715173199070164828e-20,-3.015782347163986999e-11,1.415465059454939541e-08,1.278463365718963473e-38,1.045125052408262103e-20,6.633161738134750807e-42,-2.066510280151786031e-07,-3.836073380917926267e-08,0.000000000000000000e+00,-1.432079883708402592e-10,1.291580202218223388e-08,9.017158567421381836e-13,3.874511691510640221e-08,-4.250567415529032768e-08,1.376246843832250785e-15,1.163534192734222449e-13,2.160065143982341095e-49,-3.624537988075988015e-41,2.110650025630180074e-07,-1.333201414071527300e-10,5.749817569625888826e-08,2.087886616472333060e-13,-4.786860423255719946e-12,-4.134825309238904271e-07,-6.824809505579555966e-08,7.119359193089576331e-23,4.036255903380701844e-07,-5.041539388357743122e-14,2.647331642460041824e-09,-5.902796664255252338e-08,3.896490654725924673e-58,-8.449028831840135568e-16,-1.284557041137914944e-09,6.790021496519010594e-07,-8.403634643010798607e-34,1.451711156791117072e-14,6.221710113649558480e-179,-4.184154072230292532e-07,4.679203224041680372e-10,-8.367794955620915143e-08,0.000000000000000000e+00,-3.567426345562689154e-11,-3.000469534536432625e-43,-8.917654246609423528e-12,1.540841806369698249e-08,7.237511981986281034e-11,3.212570636056979077e-09,-4.571041285058533991e-09,2.706647272220829309e-08,-9.641299544428152558e-08,6.323663993357421742e-18,9.846456646213453346e-24,2.287236332537454575e-08,-4.858445206631442646e-08,3.112258224312394720e-18,6.328265524912577023e-53,3.001864608642165523e-09,-9.521648545536759533e-08,-9.587324181291414416e-08,-3.580694359268570325e-12,-1.421321490100033297e-08,3.922241354249461384e-08,-9.476976516346752211e-07,2.045168260508549400e-07,1.213440888141671735e-10,8.521502691888474743e-14,1.372087533936884155e-08,2.041093489562245135e-17,-3.080971666008630781e-09,2.095454832251765276e-10,1.413449586445888329e-08,5.027471401677049799e-08,1.079476452871146624e-11,1.527604721241953499e-07,2.156423980051606548e-08,-1.533298517803927697e-11,0.000000000000000000e+00,-5.009109726911534365e-09,-1.449663744587671554e-11,7.122214543805531506e-08,2.361157195679211879e-13,5.779770323613853375e-175,1.458795858835896483e-12,-2.584119278530607493e-07,6.647798766421036959e-103,-3.394061688155730249e-11,-9.366094289269857340e-10,-1.618720590781714539e-09,-2.870516409090469072e-11,-3.484956747359014963e-48,1.585160334380303300e-11,-3.448597517653916590e-11,1.572574412156593544e-07,-9.414723147024809536e-08,1.697857283159370177e-07,2.421739939785666121e-07,1.327148986219634014e-09,-1.728967552738814125e-25,-1.107456098550785806e-14,3.009405882182700365e-08,-6.445236339397490885e-18,-2.262007714214774514e-11,6.936705560867540581e-12,8.714954787242476345e-14,5.458345737403209027e-22,-1.678453864806676394e-09,3.802853444454476628e-07,6.714896924474903985e-07,-1.713476707042809569e-08,-2.987119512395668117e-42,1.319564609419821947e-25,2.119857321018822945e-26,-4.119325414167876668e-20,1.454739085358426166e-106,1.300572703481364282e-31,2.017773810755061596e-09,2.285147137419747324e-07,3.002872791213597237e-56,1.510077086715596672e-07,6.437538735486873889e-10,-1.041811542586755781e-07,5.036072285867035630e-15,1.374330656367546813e-10,-2.239438303692773563e-07,5.094083847830609890e-30,8.674754911624350499e-09,1.038104008797509345e-08,4.703445143908952277e-08,-1.145385219024442030e-16,2.823254179142845417e-09,4.915197202966197356e-11,2.360170223466153795e-32,-4.941184616893455046e-08,-1.876529731956131715e-13,-3.014146434794517086e-09,-1.068130598859025751e-08,7.731000972548200802e-15,-2.475643335646372674e-07,2.616413538809173788e-07,1.236721271527570068e-09,2.938553986793752501e-11,2.148622853450205640e-07,9.682670612939841723e-09,-6.459096654290169936e-08,1.775299280021182498e-07,8.109378733559319929e-35,6.280395437788373064e-07,1.014511284224531039e-08,2.054761968921567508e-07,-1.224895694285301405e-09,1.160491439605901240e-122,4.313598769353209854e-92,-9.881471430837796814e-09,-1.821429937566957341e-09,1.163886684719071326e-07,2.896273164391805330e-07,1.384710974688660658e-07,-1.598002749980011676e-07,-6.804394514418416516e-07,8.935120478230665690e-16,1.857355988069632893e-06,4.153197885200479606e-13,-3.117627444298779905e-07,-8.361798836874286066e-08,-9.326128863075964301e-14,6.063154614903828574e-67,1.543715179268631853e-43,1.334922914397921971e-07,4.039668053400560190e-181,-1.061247838923483948e-26,7.840243594616463022e-09,-1.593086598920628544e-07,-7.400414797567771690e-11,-5.448234978718638768e-310,-1.283991162987415170e-08,-1.770865898486412717e-07,-1.454526236884206358e-07,2.804422879237883892e-09,-8.833505373399394151e-13,-5.345857126416261151e-08,-1.137766851988190304e-12,-1.577245512474712141e-07,-1.305065171660442422e-60,5.631485178740452620e-17,-2.622319934669233294e-12,2.559506482547218989e-07,1.586876596433536411e-16,1.932115868708477656e-18,4.209852252099334661e-07,-9.674007471785050503e-08,4.723821949198343835e-09,-2.761048426760203636e-16,-4.876290515864743149e-07,2.238691406845886947e-19,-7.959499458936870531e-211,-4.550806347839774304e-123,3.030284913990440949e-22,6.738339822911358797e-20,1.827883740011652680e-07,-5.715539676400245033e-12,2.344552319805345098e-09,0.000000000000000000e+00,-7.205694023982443560e-50,-1.738850471545764554e-07,-3.893380265296752246e-196,-8.493218324221936443e-14,2.806259026955035733e-07,3.064312127783164191e-13,2.267783148596990263e-12,4.042953035960149562e-12,-1.660966683728168087e-07,3.871523671876080761e-08,4.149179202398508631e-07,1.439217555093722307e-07,-2.721843265606003010e-07,-8.836010683950072048e-07,-8.252234849406387031e-55,-1.279274424776789035e-07,1.027569104634778776e-21,6.049373044029347578e-12,-1.999543726810301509e-07,-4.276121638376685879e-07,-1.519558390060678388e-68,4.709989073149545350e-12,1.346978324882499123e-15,8.578558727420392236e-57,1.429140163476725184e-07,-7.619138725207230894e-10,-1.864752259867429747e-17,-1.412115646504942356e-08,-2.806591435787070424e-09,1.205855520331921440e-12,3.889587550314072872e-07,-1.411549510587462397e-13,1.399898436274028208e-07,3.469778760356300856e-09,-4.767707892588895710e-48,1.975846662481769195e-08,-3.592963006065185967e-08,-1.156025558437176954e-29,-3.937528172495707306e-07,3.297556481318271921e-09,-3.907263024131380018e-08,6.953759118054313354e-17,-1.132770510189925720e-07,3.411742100461116396e-114,1.005716915482731497e-25,-5.242288052684424274e-29,-1.959554075793580381e-15,-2.171974886087977635e-07,0.000000000000000000e+00,1.374921323979360260e-07,0.000000000000000000e+00,1.609748625208146713e-07,-4.795168691367274426e-07,2.251034467063210616e-11,-1.655777155664778215e-07,-7.347563812891121609e-186,8.724780753950459459e-82,3.191339079385632590e-08,0.000000000000000000e+00,2.839984422006322202e-12,2.653310014062634769e-08,2.966260527610862243e-56,-1.449320316955661188e-144,9.846578498843511906e-08,1.035389928732536287e-07,1.457662898283101805e-10,-1.042160849754990205e-82,2.503012507096932199e-18,-1.665414780061992691e-35,3.365197657116085190e-10,2.412249960170838073e-09,-6.423916604256851986e-12,1.091333921477642172e-07,1.138270200079038205e-08,-4.018883378818299707e-08,-5.213027122492512190e-66,-3.980868667346002697e-15,1.225649978841524870e-11,1.266283663622039952e-11,2.005011738029743950e-27,-1.687496856575370193e-12,4.170753400759659029e-23,-3.706676774699038400e-121,-2.393224389244010470e-07,1.892345428141182988e-09,3.680191483845656261e-07,-1.799114765948979564e-14,3.109085131722610445e-112,1.855374414607640258e-20,5.518217246647070872e-50,6.296750289620329439e-08,3.509142201139076244e-141,-4.282036727050226080e-15,0.000000000000000000e+00,-2.078491001036742678e-08,1.207575003755122571e-16,-5.633682562682891721e-11,-1.131308789672189758e-11,5.105761778175890585e-09,-1.060892850021559828e-07,-5.932604445355027985e-12,-5.164795798235005755e-13,6.016124946844048580e-139,4.819232237878878542e-14,2.105498491744464791e-16,-3.323710968965572262e-07,-4.089289598216223480e-08,7.082079457772833544e-07,1.254990433692806378e-07,-6.750589397414054036e-21,-3.558296543440623236e-15,2.494229588419319174e-51,-2.044677782431907199e-07,-7.243762762645992898e-10,-4.117426446687025577e-62,3.285555271651537828e-12,3.315904620178090282e-07,2.043604584141307186e-07,-4.748822106418325154e-13,2.898903168385902245e-28,1.538699444230958120e-07,2.316115161051703678e-16,1.055573826956943632e-11,-2.629603005905988409e-08,8.717697782074285409e-08,1.017316244954237606e-07,-1.742685381181367409e-27,-9.049597972287852855e-10,-5.861423000897071931e-09,-2.275707036945071964e-07,6.568747610652591552e-12,1.359332545374401801e-07,-4.318106397936073386e-08,0.000000000000000000e+00,1.893033177238932458e-08,3.749403497586620040e-17,7.916696351015177072e-41,-4.046664141085624935e-154,1.775769438219880074e-12,2.708555933494174006e-17,1.768076069281063011e-37,-1.254233537813680225e-07,-2.117376245386828309e-07,2.213900489346399648e-07,5.719047542069560555e-07,2.711987613194548616e-08,3.142623030689819619e-29,1.452017922997716765e-19,0.000000000000000000e+00,9.034418793174922005e-11,9.912752413761671149e-09,2.714429637564623811e-21,-2.196718143408032268e-07,-9.840323370728568886e-08,4.473152773355256582e-15,-1.912954355969100340e-43,3.974530687660913530e-08,-2.530666255577185950e-65,7.208266403121297866e-13,5.347870261762949340e-09,6.262374420053112273e-07,3.341401120973726604e-11,-3.415719699252894360e-16,-7.370295965774816720e-08,-1.265304745557045905e-13,4.068460590217208708e-09,1.201169259533060770e-07,-7.555388104715485375e-19,-1.436362423122526155e-07,-1.342406906027550026e-08,2.143753275933779600e-08,-6.716422623470043290e-08,-1.118909136939562187e-17,-1.328578415401166269e-08,3.539233004847718760e-16,8.982293886083701983e-09,2.200805153324621814e-13,-5.722177343639991315e-07,4.725494938724623521e-07,3.486717523983368167e-15,1.163512633380373097e-104,2.747412489110711238e-16,4.749525342252586532e-07,2.247058396729116919e-07,1.607186791892411222e-10,3.646050510016729664e-44,-8.282752392790756943e-08,1.138204245344938934e-13,2.085196756484160302e-19,-3.194189493139477029e-08,-4.166971688949262179e-08,-5.283807441951032624e-07,-7.918620355097947831e-10,-1.009503785554227907e-11,0.000000000000000000e+00,3.815540752676216473e-15,-3.867957287911355403e-15,-1.218498102531822162e-12,-3.154408262893099651e-18,-1.017229414203857703e-14,-1.132959810253877030e-07,6.108043993399164387e-15,-7.388319868580957244e-55,3.234902901332019216e-12,3.436341148283843132e-14,-3.219902651518655674e-72,5.776981287248779025e-18,9.894123172980590664e-09,-6.954013462934244588e-70,-4.689721085290331697e-10,-3.838833996718073095e-08,5.264321554714698478e-11,3.487057916452873417e-14,-1.278558854509582135e-09,-4.541166023674899042e-07,2.902574318246135119e-08,-3.812276656144530192e-08,5.318641440949405623e-13,3.218497159798198790e-07,1.386969691813777565e-56,-1.500348253572498968e-08,-1.428853762500000923e-10,-3.009185643744119104e-146,3.409725339756507436e-43,-1.014446276777228540e-139,5.419871045250174653e-07,-9.178994339588824037e-11,8.548341559463352922e-10,-1.061208968691905328e-08,5.700440779453318292e-08,-1.327722427982340299e-73,-4.239358036153182356e-07,1.114526662822930210e-12,2.217760509073592997e-47,1.104957022500746092e-07,5.758287215420112913e-310,3.952261485095089284e-07,2.124165897619687174e-08,5.576865798799170231e-52,2.262565528298528020e-14,0.000000000000000000e+00,-9.791086099286363291e-22,1.615903250209401682e-14,-1.671982342069399267e-12,-8.460347949013322977e-08,-4.341243183392872978e-14,0.000000000000000000e+00,3.438014464409356680e-16,-3.394328653996574938e-08,-1.345446414527803840e-10,-7.905361517525502055e-10,-1.894548202844260467e-10,3.166308927267012532e-08,-8.328681347763698855e-07,-1.867104077101417474e-22,-1.341354904644920222e-21,-1.176287804797071789e-25,3.700690722655430306e-16,0.000000000000000000e+00,-2.828224241121705660e-10,8.425120830410484646e-07,7.680986138635942086e-09,1.135455567392153799e-24,-2.288821834499822826e-07,1.885113146557286376e-08,-1.274162987837770594e-07,-5.729973121237530685e-170,-1.716301344069170816e-08,-6.361074957740035287e-08,7.572624695596994728e-24,-1.749273698082908958e-13,-5.798382330219238914e-07,4.715655991154103233e-16,-6.859371600658324673e-08,-5.344380678231177579e-15,0.000000000000000000e+00,4.775868081201383478e-15,6.801437630526804294e-25,-1.176161948596164487e-10,1.571730511613333136e-08,-5.238919523311443121e-10,1.449772072501015186e-44,5.240822509717590443e-18,-2.885631307286601742e-12,-3.363109352451354171e-10,-2.332797364818051643e-153,1.243864930477456901e-11,9.446312873831426518e-76,1.580638034981666306e-07,1.755263164718699129e-08,8.799498250392690951e-56,5.941464066076237921e-08,6.122051403712399824e-09,-3.883382743079151054e-08,-1.326920950768385757e-07,-1.438079049078877999e-07,-1.501279237771981716e-09,1.767735969809195960e-08,-1.918315332035549133e-13,-4.344882458869773878e-07,3.943043911977758641e-07,2.661017859523350944e-08,-2.767076425365446285e-46,-1.350001434552788911e-09,0.000000000000000000e+00,-2.668343705558680032e-08,-1.075675606521794692e-08,4.827287213444338262e-07,1.568146973109663398e-07,-2.350740669027279520e-10,8.046550945141820373e-38,-2.699139174701373134e-71,-2.788564374389999633e-21,-1.639497957637593665e-35,1.491305576820475832e-230,0.000000000000000000e+00,-2.102450317453574344e-31,2.612835087092367733e-14,-2.053276392150787465e-16,3.713653298274371240e-08,7.948664154347544678e-10,-2.466226452368986646e-08,-1.218196352307018171e-09,-2.825741098116767147e-10,1.524668960053343862e-24,2.915217459278656021e-07,-1.095252426630789690e-70,4.661959228374426907e-07,8.989930289281051219e-07,-8.611782169085321713e-08,-3.026222395925357721e-07,2.497425548089067718e-17,-3.986042854135283027e-08,-6.461322077315662777e-08,1.663783239138376189e-16,-3.304450947492003264e-08,5.913336475277727129e-07,-1.024609982366224381e-26,-8.854007512401934489e-07,1.338712631995065911e-10,7.285666469154319181e-16,-1.703560524390881126e-07,2.435407583680388521e-07,-1.042192115943099024e-11,-2.197094292407826460e-195,-2.199201593755568008e-08,-3.191522817600402886e-25,-7.149987873277850685e-10,-3.924274668473672638e-10,-9.728268292661366146e-26,1.210586198666709812e-06,-1.515176056415072606e-28,-4.934405253702044961e-111,3.785192290966978501e-08,-1.177017916945333491e-11,5.572658764332841294e-13,-5.100180319602401026e-18,4.942289689349766867e-07,-2.261225523216300274e-09,1.541036410328225361e-07,-9.843178550614389427e-08,-2.371597927931291476e-08,4.666657342071640551e-07,-3.082227750637244436e-08,0.000000000000000000e+00,4.171134027790281924e-08,-2.128611602318286222e-12,1.262641888933885039e-59,-5.325176366685629407e-48,9.107896342210608696e-08,-2.775293826493172395e-20,-1.872562609291981702e-07,-1.756003682569674109e-11,7.160503125868980943e-08,-8.268508965954932131e-56,2.422550596275031375e-13,9.301753024505137825e-08,2.684052379527068781e-24,-5.733644446909586524e-11,5.685930967122699811e-09,1.233291315035963942e-18,-9.029003420224148423e-19,-1.547212994478320715e-11,-8.839129556629072961e-51,-3.825510258058733999e-11,-7.865083117465114255e-08,3.310614673963390342e-31,-1.281789323990141570e-07,-1.972707148428626635e-18,1.581500683738306822e-13,-6.396702546928806053e-08,1.516689779564865841e-06,-6.200942610500358955e-16,-2.232082510250481590e-77,1.476582610265632245e-107,-1.404889423107525645e-26,-6.334467068689907436e-64,0.000000000000000000e+00,1.044448664863290821e-09,2.799257837833493624e-09,1.531137875666698145e-12,-3.113121704881363864e-11,-4.888502869534264500e-11,4.606695958470389890e-12,8.529648011850524235e-187,9.417419351924853973e-08,5.308885011782986485e-08,-1.951202570974898621e-124,1.292164142415665502e-17,-4.732547910287161846e-59,9.671972296213837129e-10,5.258881255209346434e-09,2.582558359247317637e-15,5.945161298597352082e-09,7.646074737362342159e-09,6.338037143684171627e-08,9.124095901397871680e-08,1.248364402487267135e-12,-7.047870572432172637e-09,-5.479746827705253057e-14,-1.001618391599823475e-08,1.887472223544022187e-08,2.144070866046663441e-08,-1.006781140096839291e-07,-9.603624111023101607e-08,-3.258152983099965317e-12,2.114947480573789656e-15,3.989627157828567290e-106,-1.084772781369087332e-10,-1.615422384839393783e-07,1.628432088091785795e-07,1.531105531566298379e-09,-1.542014182553165353e-07,-4.394974818154586951e-11,1.222712009376095827e-08,-3.005969613083882117e-23,7.840815860366271941e-42,-4.149809691714567388e-10,9.615405535632067326e-29,3.584873193864430442e-10,-1.616640770435249664e-38,-7.471275532589015270e-12,-1.480910664091835152e-12,-3.278393263010501673e-194,-1.475950390310260955e-93,1.127472157058920239e-10,5.866830070783508773e-07,-1.028037931909138656e-11,-2.232165067243085739e-13,-1.018627898169306876e-39,-4.024578874294154196e-09,-3.223389586308543021e-07,-1.960216637623395539e-07,-1.735426368713909131e-09,-1.073415008297764648e-14,-1.144868306902148928e-118,1.424372171949733185e-31,2.579344636699565099e-15,-1.410020770524397947e-09,-3.082133843483692178e-07,-1.542937365473498189e-07,-2.622219122534539485e-14,1.798232996235910102e-07,-6.221968552921839299e-16,1.084470230309031420e-71,4.170977401237000683e-74,1.119613341155826974e-36,5.815839289089722467e-10,8.092202195587136455e-100,2.377826029142214184e-08,1.223003270157336762e-116,8.593443443770430120e-99,7.320567700304874303e-08,-5.267755236593484671e-07,-7.190921139684449137e-09,5.224737991229736818e-08,-7.236270122848961023e-16,7.560425353893999771e-16,1.234115400509416430e-310,0.000000000000000000e+00,5.668221898574653779e-08,2.635216596972704574e-08,-1.251524516108027014e-12,4.712418543230056699e-07,9.346361631298087248e-13,1.122362515438296886e-49,-2.546862466748759474e-21,-7.503766653405193007e-09,3.084597482255112293e-08,-3.702524895791307795e-10,-1.427612675214214637e-16,-5.754204217748396676e-58,-5.356625725864782735e-08,-7.237563986053464745e-19,7.539671709878318002e-53,-2.438885428170865819e-13,1.607537470011096067e-07,-2.015681422047427204e-20,-3.504043882945655510e-07,6.332761467915653288e-15,-2.236454227212766707e-22,1.989625784286492128e-07,-2.937887189356697180e-08,2.766331319556270941e-09,1.009993274049848484e-26,-7.249670484690075937e-08,-1.997868663035691748e-07,3.341566029114192514e-09,7.803272089137230111e-08,1.782982581628906908e-10,-2.659954042812633553e-07,4.089737727028281719e-63,2.596205658237566421e-30,-6.182939172162132434e-18,4.439664644620851615e-08,4.778774587454072357e-13,1.261584317191064204e-07,9.970489571999104953e-08,-1.914360041503636434e-08,-6.892000285954498257e-20,1.597088490046266649e-11,-2.621678677485822666e-16,-9.296547938100577214e-08,1.867191357713265812e-13,-2.917346233074683841e-15,-1.877451594487691377e-13,-1.314249121811131363e-08,-3.171392194059061989e-18,3.788719617651707173e-14,-1.278180071003124748e-09,-3.220024723599433872e-07,4.741854754583473802e-11,-3.118149710119272456e-39,-3.188199912463630773e-19,-1.738334849522405077e-12,5.128018517857266386e-07,-1.339615753934579335e-07,1.992518023048316719e-102,2.475153024605499586e-08,4.845512928960775539e-09,3.961005604752185568e-34,-2.679458037520768838e-35,-9.354871556913774709e-11,2.331214171800571153e-36,2.511293570665340968e-09,1.994877975971790775e-10,1.054707261983771335e-119,2.774442101475536159e-32,1.806067751228028879e-10,1.110810496400036942e-09,-1.523819482273360372e-07,6.345595753234848667e-17,-6.981609320828173681e-08,-3.737683723477944894e-20,-7.514645948323031723e-07,4.048102115373898965e-07,6.418388427406865452e-50,-3.392947741370759884e-26,1.839628201425495766e-08,-6.921158286289774527e-124,-1.282128008445867033e-08,7.716853416970989146e-08,-1.275018309345390271e-15,-3.722416519998480243e-08,3.833887102993205586e-07,1.732902946165745552e-141,1.691959436341467320e-10,7.171943498345162762e-32,-1.943568657243726879e-07,5.295746029535757304e-08,-5.513284033751033104e-13,-1.647554409763257833e-273,-4.819542915125764067e-78,9.438057231057099851e-09,-2.937534134042965410e-07,1.066554356196374507e-08,2.084723470352791167e-16,-5.178771613894766900e-144,-1.022794283677258480e-48,1.229700581589165833e-07,3.280808679497842543e-14,0.000000000000000000e+00,-2.869035110055907738e-07,2.080761528752754864e-68,-2.092941568428245746e-07,1.561429424054644503e-13,-3.165028975399183443e-14,1.362110159828022729e-07,1.845650373984308324e-08,-3.467358594314431627e-168,1.274727689690796827e-15,-1.865479233340362868e-17,-2.872794441257364425e-22,-1.362589198139801335e-07,1.608686508580326068e-07,3.657300633948088034e-08,-1.404385456509671820e-07,3.743334272332831443e-20,8.936726694719981861e-09,-4.775455786110427929e-148,-4.250932269196465484e-11,2.429391382127073638e-07,-1.124307649380145894e-08,-2.835833714083890757e-14,7.184415056892782729e-33,1.794671909521002401e-07,2.257986169459758907e-08,0.000000000000000000e+00,3.251446406416897759e-08,-1.640295805788664021e-09,-2.296802142187856882e-10,2.365487247049347823e-10,-5.413436025068163369e-14,-5.172415118458433967e-20,-7.521651884757563832e-79,2.923604262850526438e-14,-5.209872901960127046e-14,-2.915982916668702491e-16,7.130594366889912848e-12,5.501179106489081234e-07,3.119357690738052933e-08,1.897369001179489346e-60,-3.407258361696562430e-07,3.134054670416131653e-71,-3.116992683259004091e-10,-7.707650446886641249e-13,-3.196904659489008042e-16,5.268519363456059022e-19,-9.438665461519335817e-08,-7.222170069505664822e-08,1.415622742968777452e-15,-1.132445050599822242e-10,1.397865345426011351e-09,-4.220456853951238911e-07,-2.579992324443625641e-08,-1.265523276199193207e-177,8.965730391936633760e-66,1.853821402460004731e-20,-1.327855727718071451e-08,1.952347274028909599e-07,-2.276259375220512064e-42,7.252042028240185098e-117,-1.751131725087413782e-08,1.084364308255601201e-25,2.553918334187615741e-35,-2.200463240002867237e-18,-3.804230510867562778e-47,-1.313700032631784691e-08,-2.516401224661875507e-11,-4.108613544853806657e-08,-4.963635305531029583e-07,-2.519091849617160617e-07,-6.061619025522999261e-36,4.133094088357538935e-55,-5.155343995105104138e-18,1.420411837073930708e-08,-9.321626204158520482e-09,-1.498611769938165286e-11,1.291887350702364182e-10,5.269557283489299980e-08,6.097825182100303162e-08,9.291405602432483529e-10,7.703149903153150232e-166,3.289358912678661466e-10,-2.209685594983631768e-07,-8.273504536141949571e-10,1.757814053257596510e-07,-9.542879993016669214e-142,-6.826820126363045033e-60,-4.853158072730268607e-15,2.869664508606519515e-13,-3.796475751232318744e-121,-7.517614053303798187e-08,-2.541421191395381063e-18,-3.975907767944811418e-09,2.643571596812606226e-09,-9.823481434642247581e-20,-1.033618144457212253e-11,-3.945030981653794312e-08,-4.725201096754943122e-13,-2.070685521543469283e-07,4.125107614699086936e-12,-3.824526668781377864e-19,0.000000000000000000e+00,-6.243451850438009002e-08,-1.330147855590008297e-10,5.267719740884105443e-50,-5.743348427943506975e-07,1.368925891170245616e-07,3.762160936337710998e-09,0.000000000000000000e+00,-1.502496017966536979e-07,-1.471956092902094277e-18,2.340780735502202545e-07,-1.695633481867586544e-07,-3.121988761496857271e-93,1.837523472036973066e-11,1.322455725493702683e-17,8.065450494587900615e-09,-1.881426262992371487e-10,2.472727986236539497e-07,-3.246607005008188769e-11,-2.636204489670716304e-11,4.976385614729894537e-08,-2.055739766404721284e-09,3.481101237014052675e-10,-5.577227562105123239e-10,5.904526028273768186e-07,-5.233929301042564096e-09,9.997564822425866413e-17,-1.080863377340186358e-08,4.221064784204502092e-07,5.194779502665030534e-07,1.632856120021224057e-08,2.912337590710035183e-68,2.374737192228468871e-18,1.523544555701215558e-19,7.058027123756994236e-08,-6.082406883114828793e-116,-1.550192522420336462e-13,1.219927188518774974e-169,3.671839422501050485e-07,-5.690705052703818422e-07,-1.060396941372530636e-07,0.000000000000000000e+00,-1.036204331767652079e-07,-7.885105859803225439e-08,3.583037808520291495e-14,1.175092579163322756e-07,-1.818594681929876006e-08,1.297911803011227986e-07,-4.383392468427718277e-23,-1.839282326936082801e-07,-2.623487330286124767e-46,-5.107142340733020243e-07,2.002720587739219638e-19,-3.988098784406102936e-31,-2.816658326526729888e-23,1.556472448708568844e-12,-1.782592844680037719e-59,-7.061685227065361993e-18,-1.995887189793233313e-07,-1.239436113295291493e-14,-2.347114874401804865e-22,5.261259716344969792e-186,8.474220026658351773e-48,1.054518060838687766e-09,-1.875442133756265451e-06,2.132373549055851046e-22,3.371975253033754285e-09,-5.318516067799604881e-08,-2.502558681197475478e-07,-1.138922604449129188e-22,0.000000000000000000e+00,0.000000000000000000e+00,2.181063716204944919e-07,-1.855466680300828325e-19,-3.015006123186948054e-258,4.255997870641613240e-08,-4.701324486031210167e-09,-4.058345924214944279e-10,2.544649653880202090e-16,0.000000000000000000e+00,1.201628398114358815e-15,-2.071417792960561951e-08,4.349663755589004122e-07,3.036518743035082809e-07,-1.932664674402708828e-08,2.219499886402099562e-07,-8.754942031806343720e-36,-1.672237736095659006e-23,2.374453687244150598e-10,2.436838710067384231e-204,-1.668314372103878869e-08,-3.859508633345638715e-07,9.956561120206559718e-08,-2.233405002884071489e-07,-4.913548969731173763e-09,5.295346511635650941e-08,-6.801046952478086359e-167,3.616512673903375738e-13,1.123494011600664812e-10,8.572108417903351998e-08,1.247431531100034209e-07,5.096359491333072746e-08,-2.725571137827972026e-152,-3.355823104209039385e-13,1.036864218861891476e-07,-2.432328641973202493e-33,7.487687851605128576e-13,-8.126536284395176947e-11,0.000000000000000000e+00,7.214873409491609854e-47,-1.179823055636770897e-13,2.736821181869996006e-31,-1.246051930862874135e-07,6.885165187726271866e-07,-1.453827116578204363e-13,-4.333139301445376802e-12,5.064857852417941715e-07,4.103726463488639302e-10,1.583437331214569105e-08,-1.448101531989551022e-39,3.847759612895703831e-11,5.407954993331588434e-09,8.321784564384036078e-11,-3.056087320563837422e-10,-2.151581473704961061e-07,-1.073773006234464946e-14,-1.043677355200050665e-96,-1.431723580672332529e-130,-1.164613962852648473e-112,-1.444262441790041186e-07,6.327558130161905525e-19,-2.823332504896986498e-07,-2.616817670922953267e-10,5.167832013617637485e-12,1.506956335591918094e-07,9.268122783022246260e-14,6.212176495564891536e-07,-3.336811879959963338e-13,-2.171286375269433175e-08,1.681164783434763665e-17,2.358699876637788472e-14,-1.282517668133354892e-07,-2.821566762857547519e-13,8.423357157256435388e-25,-3.370657790470430199e-07,-2.446036943081127819e-09,4.926278658181770177e-12,2.566805553980037298e-07,-1.363099653057576103e-14,-3.802783327762339619e-07,-3.371564051475307307e-18,-1.645533850628859525e-13,7.522039473023863118e-07,-4.228997734816875863e-14,1.224895367375519614e-16,1.988060623402905260e-18,3.847648918984940300e-07,3.110584605490904906e-07,3.821450460151397145e-08,-6.809488302377725623e-51,0.000000000000000000e+00,4.559926438639751292e-08,-1.041168250567144786e-84,1.393156350332473977e-10,2.100529802629078717e-07,-1.324066002810510916e-13,-1.613961693402646115e-30,1.670223438388563903e-48,-2.682253981019966329e-07,3.119090475000124057e-226,1.631316008203924324e-26,1.134796200749111388e-09,-5.872794892936630495e-12,-2.729679656936080140e-11,1.064157985555072684e-49,-1.069179866785184945e-12,6.001578362189532039e-13,1.349995359560187190e-10,1.384554247139904161e-07,2.970788502178160788e-07,5.578562744710764808e-12,2.508505881354312026e-12,5.367468071765191824e-16,-7.766595903715983726e-08,-1.598101973304706014e-18,-1.010863504214738585e-23,-1.434534340959169190e-104,-2.240288236606327445e-74,3.375041083919485254e-13,-3.380442214599229599e-58,-1.512232593264290500e-15,-2.180489675528820381e-30,1.717088394331791815e-09,-2.828198112311934209e-16,3.128665290899543998e-07,-1.057193502484981794e-07,-7.345909740827208054e-43,-4.282128700296628582e-07,9.634235594682473630e-11,2.295369354040610317e-19,-1.009781304260133806e-09,2.286317619693409641e-32,3.192286970782026530e-07,-7.770083665221214280e-08,-3.076415245681830736e-07,-1.017126877611335594e-09,2.805175414406776633e-24,1.862006362044531647e-130,0.000000000000000000e+00,1.243170791382636855e-07,2.023062838975483571e-07,-3.802703607216549948e-13,5.614991168483915461e-11,-7.866918958562654198e-17,-9.425223747715288895e-10,1.064029037052686443e-12,3.450371223058903321e-08,4.477185923244059453e-08,3.043030333723915427e-09,-3.904323920032971197e-08,-3.009265217555999467e-11,-4.807459609037700425e-07,1.379564969227081353e-07,2.378226020436089513e-94,1.037013289456110538e-13,5.771445640834192101e-08,-3.909787058107204183e-07,2.741183200218181970e-45,-7.423223834737914758e-20,3.477243434561742764e-07,2.561446809419516634e-09,4.533494746711056796e-50,-3.078871517088744877e-11,1.484006912486860520e-12,1.327882160701918780e-23,5.192009922637464083e-07,3.979390939149821367e-80,-7.687478866971154463e-11,9.761949131709897681e-19,-5.756342269323243418e-12,-2.052142831712671840e-12,-1.492165774928551342e-12,-1.669477047271277627e-07,-3.768588165034026861e-07,0.000000000000000000e+00,0.000000000000000000e+00,-5.699453344656650006e-14,-1.252954105798993398e-11,1.600845299589422463e-12,1.462394338830336996e-07,-9.768002325630887855e-10,-6.088283799427840378e-12,4.300113653220397768e-19,-1.316770063460046908e-07,8.385021352015112555e-09,1.314522205022094363e-11,-3.429874374836110307e-09,8.280896329480647248e-88,-3.958109614032174805e-37,4.561552946317514687e-08,1.648789335966172438e-08,7.201927050548200221e-23,4.600509546156788314e-09,4.145128619029115249e-07,-1.049349207087792343e-08,-6.115507643960679265e-09,-2.410621386996871614e-07,-9.022213920585231296e-08,3.807589310069822146e-07,0.000000000000000000e+00,-1.914873044537325645e-07,2.490145291868100415e-07,6.087761965220575612e-11,-6.077961976339352586e-08,-2.175213793097661534e-10,4.608393642727965279e-08,-1.307207690574215469e-08,-2.802853107502083573e-07,7.867648872216294577e-08,1.831166664614880151e-12,-5.995802367345582690e-151,5.077093318506764660e-09,-2.869306719693702227e-14,1.202086740403154297e-07,-4.343164319000769144e-07,-1.938454133624738687e-07,-1.424107845427427413e-07,5.784102732566923290e-09,-3.788620852993513243e-21,-2.279458910973994221e-08,-3.984727693378804525e-13,-2.842521062314736307e-09,3.408530930836310051e-34,-5.383223964039367552e-11,2.747737183378335582e-223,-1.901341531464787521e-09,2.867720847937828534e-07,-1.177630314059979945e-16,-2.283504357241780905e-07,-1.424636622158028203e-68,1.790193788452130697e-18,-2.977337387231614067e-08,5.018585659561960684e-15,-8.419616225773367821e-44,-4.045259973868377776e-09,-2.440703367635874165e-12,-6.010370942901315823e-08,1.662515387553003150e-08,3.279328492451160741e-11,-4.278710030234042308e-36,1.472002873097994428e-18,-1.020531778907212925e-76,-2.832122840861755678e-264,3.415487415864557435e-14,-1.085634435936342363e-07,9.442638575365608306e-08,7.200268999736337178e-08,1.364052223520532627e-91,1.079113341064862171e-10,0.000000000000000000e+00,1.125465248831966151e-09,-6.190960811042966783e-176,-1.394586299606574763e-07,-4.455986931371543840e-08,8.092506129771143401e-17,-5.413622158789009337e-07,6.280255740596210393e-07,3.942277881901730145e-59,-1.595532256025116299e-07,-8.068390015044702932e-25,1.624094516042894811e-07,-2.256372969675430370e-07,-1.031808092298077449e-14,2.267985766417889666e-13,6.973219748245854312e-31,4.142642575826078054e-11,2.123215576359296474e-11,-2.998548005690963669e-08,8.384846645894347158e-09,5.742882811634418658e-16,9.779605919885271043e-18,-1.788594072883045524e-08,5.857532662310771064e-16,-2.438266020996365343e-08,-4.426197404128370969e-13,-1.035181188404006318e-08,4.614124513771685488e-08,-1.799558524888328710e-07,-4.501180293853224150e-08,2.633884749785571012e-07,-4.807847505075439958e-20,3.211307949895523796e-10,-3.387119287799512343e-09,-3.860471718783542213e-09,-3.877333182984552988e-07,1.009955610297195015e-09,5.883157551388045565e-13,-3.290681895133566559e-12,-3.606712839675939607e-07,2.127549185725429692e-09,-1.807127995860410498e-07,1.714509621323704171e-11,-7.724971232811886958e-17,2.336599976326828739e-07,3.943263344086293607e-09,-4.865673984567062352e-08,-3.064890240045876298e-07,4.460068271645764267e-10,-1.655784636617307927e-07,-1.585972447820063397e-13,2.304691542646017637e-07,-8.467435281957203092e-13,2.906714610910728508e-08,-2.742369461908711307e-16,5.848969822191361834e-29,8.929497483251561551e-11,-1.694089917166714413e-17,-1.256236588646252448e-09,2.165488359863836837e-07,9.904991113286294566e-12,-5.520529684198854716e-08,7.968541073673430833e-74,-2.486837883137429662e-07,-6.382121948272280968e-11,-4.191207025752910880e-14,-2.578650222153762457e-07,-6.462964722608665692e-14,-4.869198162640328981e-14,2.134818935056720744e-10,1.194203010842536252e-25,1.143131242706896002e-15,-3.181138430554343177e-17,-1.154735341377858767e-06,2.024802649132783516e-15,-9.696275454275983347e-09,-5.509197490071519293e-12,-1.727974360691184846e-55,2.905573525396891653e-07,7.518222645626514674e-09,0.000000000000000000e+00,1.035535725000852226e-12,-1.186292520271978177e-10,1.499076733485126875e-13,4.700484600662886686e-08,4.895146033765995723e-08,5.788731045569031738e-09,-8.822462948789984816e-19,5.433245595878567113e-64,2.086089578090976106e-37,4.849555430778294746e-35,-4.083346583619056000e-08,3.128758170907026593e-19,1.721587944079339599e-19,-6.716383750351677780e-09,-5.765997608687733096e-08,9.566852192941439392e-257,-4.863233520202474833e-20,7.017305783339909078e-09,1.139388998879181982e-07,5.746122128348036546e-10,5.899221359535666992e-22,-4.521211945683634079e-59,-9.319653293941804371e-08,3.420685472259986770e-11,5.903286384351476847e-29,-1.810786802857573978e-07,5.795003346331354758e-54,1.622512431329778851e-14,2.473589746513494866e-07,1.180091325353891572e-14,-2.295145624175956725e-13,-1.423663575844295068e-08,-1.419300379459980474e-14,-2.165933535320437675e-11,4.401639238923761382e-08,-1.261156300830710472e-60,3.109233518384116250e-15,3.279788669956641398e-08,-2.112838708162575844e-13,-1.202561051336721525e-12,1.009354602809496133e-08,-2.960653798262996416e-07,-6.086830262024807115e-09,-5.024702269016718214e-09,1.330392100554335337e-08,-5.033948928889543225e-07,-1.293257991955554907e-07,1.657577460018870962e-08,1.891296293307128748e-07,0.000000000000000000e+00,4.553662490202028930e-122,-1.235019835718305753e-58,1.217100836706001993e-38,2.455155437326621526e-40,5.901874628512083807e-09,-3.993798085534666130e-10,-3.942315842314860898e-08,0.000000000000000000e+00,4.790582554142007119e-08,1.694662032923737890e-07,5.150513878904347914e-11,-2.725566388736135827e-08,-4.396751362884384681e-21,-2.312699272077149305e-07,3.257473948073216056e-53,-1.019605552819565251e-08,-8.851363790729701157e-10,-4.863634778047277631e-07,-1.917961497088375781e-21,3.511957033328615002e-07,3.189072920398949231e-26,2.111597834836251740e-09,9.919250333424330131e-37,1.281829248563032556e-12,3.544369263123878174e-77,9.170701764894137663e-13,3.673520655097742318e-71,5.951953735217220890e-07,-6.192389855770857296e-09,2.298611179003307719e-07,0.000000000000000000e+00,-3.120513107285931913e-13,-1.593844238480179065e-07,-6.186913979480794534e-07,1.335957608160474538e-15,1.492716198881750756e-14,-1.391456041369807486e-11,-5.378517980310027552e-09,1.541701813806995648e-14,1.787420572475207380e-224,2.179393244730839158e-20,-2.530324126699091444e-07,-1.201930418595260540e-39,-1.229815972029351160e-26,9.022515400478395445e-08,-1.721069475647665366e-07,1.227386226490078707e-07,8.535294563396311537e-08,2.613552512906828241e-230,-3.579882234332723914e-07,-1.245589459752776261e-08,4.214425392515471786e-09,-3.458445508569758337e-11,-1.652431037415551860e-08,1.756199788275587087e-11,4.556975974876397952e-08,3.059018965613687287e-17,-4.120807664567515524e-07,-5.178658122544747389e-32,-1.341572848119394187e-07,-1.423375186678224373e-14,-2.086644154119305837e-17,1.165151289581641952e-07,-3.923278585980241597e-57,-9.133908526876444032e-13,6.589902994249403983e-71,2.679572813209530487e-42,-6.701125707293453575e-09,-1.258385793424880557e-79,-1.416855396880543765e-07,1.739170601261536866e-07,-6.153017840020428022e-07,-3.362429714046681139e-07,3.280998054400740095e-08,-1.532582042131407590e-10,-1.101640148447003947e-08,1.095850345091842247e-23,-8.168635038778112644e-08,5.787548990623805423e-22,-9.939351921236341039e-14,-3.625709530935911580e-08,2.613274386131209032e-08,1.547840080183321781e-10,-7.815455837259347895e-07,-5.780489803192810561e-09,1.546896087284590986e-11,-1.547382331008730945e-28,0.000000000000000000e+00,7.855811157422200768e-07,-1.225914699670134028e-10,7.893741101124164416e-20,1.026554919416786843e-07,-7.451278197718947246e-08,5.939070141612523882e-25,-3.027329558231860662e-12,8.164836236369276188e-07,9.683140570772584767e-08,2.394375909909824095e-07,1.749778915549693384e-07,-1.008295671521672387e-11,-4.549725508545182046e-37,1.093542023721849859e-07,2.181951286907681175e-07,-1.673593554514001893e-41,-2.639877407367804380e-06,-1.270684490026072709e-07,1.589496525734108562e-13,6.783627838129136094e-12,3.503831193386812831e-07,0.000000000000000000e+00,-1.118413150313680659e-12,5.716797925751659512e-15,1.167418460391399262e-79,6.143641785236519330e-07,7.170011996529236542e-09,-5.090809967902230866e-19,1.940697340617113841e-07,-5.905961253347423447e-18,1.220796956705487259e-27,1.350877845762925024e-09,8.131335752499984507e-11,-1.505300082985166435e-13,-1.545851742309629090e-07,-1.842579015637235869e-08,-1.995419531475203465e-10,2.920999750389721087e-08,1.060351673958729458e-14,0.000000000000000000e+00,3.675555335072671506e-84,4.804336994085577523e-36,8.514253283659495348e-08,-1.662282225348880937e-08,-4.552710198728367111e-07,2.646858407152513705e-14,-6.027921497795770790e-11,-3.860533503734236549e-07,-4.847223602253319530e-08,-9.088313701668526895e-38,1.188056315617933868e-11,3.670453917018507430e-12,-2.867549551185994602e-07,-1.903032217853608749e-09,-3.677973807891836905e-07,6.942048219306571091e-17,4.309283602160543629e-08,-1.700000685279889106e-08,1.837912600276692292e-07,2.179472191888768657e-09,-1.794601731206907078e-11,-2.023862046013362339e-13,9.239960100351728818e-10,-3.556142356789451690e-16,1.235544914569054835e-07,9.289833299503152871e-21,3.999167132211582228e-07,1.395598302681918028e-16,2.487921102269336260e-151,2.356636204430127221e-124,-2.849273075786354497e-74,3.553004888212292445e-16,-1.195361316334676237e-53,-1.048748042807236633e-09,6.659745134764427070e-13,5.473870749194467940e-11,-1.092010217731356341e-41,-6.846989054631985175e-15,3.642859751101683709e-76,3.938664805799225540e-36,-1.101170206285364314e-11,-3.056399363375580212e-162,6.136075054844711901e-08,-7.214736494187499306e-16,6.240591878891772977e-25,-1.432385794288212982e-09,9.751359326441043865e-35,1.127201604738156518e-16,7.227897052884218034e-08,2.101026242260827988e-21,-2.247898754229658357e-08,5.249747451245590292e-15,-2.354912683895966127e-09,-1.489068107120246180e-11,0.000000000000000000e+00,8.216847165532610313e-132,1.336819560294255203e-16,0.000000000000000000e+00,-2.139687295218621412e-71,-1.000758279170021350e-59,-6.265337422544679512e-13,1.630653947776547697e-30,3.086320595787784428e-07,1.957739419777458948e-07,-1.607007222617449927e-09,2.604111998040082219e-07,1.289970110423587457e-13,7.140832309600052417e-08,3.298924525170265304e-85,-1.245998440228015941e-11,-3.948703053402840345e-08,1.069286523912403749e-07,1.349857813600822604e-08,7.568831442329651798e-176,-1.698687237432522719e-07,-2.466912720998254480e-12,2.173749587686938668e-07,3.112586493718142893e-07,-7.843076900914275395e-16,3.671189773236208118e-07,-3.699388636815685492e-07,-6.692957036613726371e-08,9.809482171299010753e-07,3.508837972137655845e-07,6.340546147168311758e-19,2.907256548181569013e-26,-6.392070681782813603e-14,1.009486826193010355e-09,-3.008700665484129587e-07,-3.115817499692993126e-85,-9.910440003062556661e-63,3.558805934377738313e-09,6.484014469144645227e-16,-2.768096398616964797e-07,1.465939179269524276e-12,1.190069592983587188e-13,-2.344313005730747514e-08,-1.286194401298545214e-07,-5.665092202323934365e-09,9.211047266025589819e-41,8.909997967615451346e-24,7.804527133608496729e-14,1.253006911409144785e-15,-2.489196193068945447e-08,-1.960900131744347025e-06,1.961185936013398608e-07,9.162264185271433061e-48,-1.270367898031765295e-14,-3.198627307529252764e-20,-8.853437350237335868e-09,-1.572859673282506112e-12,-2.366882686573378170e-15,3.127868762801700085e-11,2.719792308062353839e-07,0.000000000000000000e+00,2.654204524894435088e-20,6.743304410784686182e-08,-7.309638070619518455e-09,-1.682997291335582571e-10,2.381693366024285440e-12,-1.398181532046562519e-09,-1.663420560870001018e-256,-5.498020315879142068e-11,6.751948029117735859e-61,3.523586408802159146e-27,1.442506747962660481e-32,6.860102072838221288e-08,4.861863140505144754e-20,-8.907540325941154939e-07,-5.151455943818334220e-08,1.177312829751643105e-07,-2.155425049875806561e-34,2.316671871878278844e-07,6.962344598840511147e-16,2.037596875159918801e-64,-2.244675549559034591e-10,2.366576579612042684e-12,2.123761049068409663e-07,3.922984767629230489e-12,-9.503005352303674857e-08,-4.223221511463789061e-14,8.872531157224460517e-08,-2.949999023146869771e-07,-1.047913574517182248e-24,2.465130931778031709e-09,-6.850229062010272911e-08,-5.979059061599260511e-08,5.794485077253547282e-10,2.052844374010884764e-13,-9.305096706190579003e-09,3.148796888651568626e-07,-2.350854300585063275e-11,3.993059961559379990e-07,7.045581593978808523e-11,-1.019311555456507806e-20,-1.930304454046269787e-08,4.426419590734742114e-16,0.000000000000000000e+00,-1.391008639161885911e-11,-5.267710192456282872e-54,1.970397091016971895e-18,-6.310121469850136205e-20,8.947805307822560292e-09,-7.333007379942194274e-20,-2.283862055660084671e-27,2.241474164813915902e-07,-2.857283563038603269e-16,3.530773545480531531e-07,1.390166400324532607e-14,4.197151251982933777e-08,5.229052224758033881e-07,-4.529098267588420636e-25,5.564462920467293045e-07,-4.602062955116103583e-07,-1.712360533018597790e-21,3.540528732683636333e-11,-1.780335319041857788e-09,-1.485766758179445422e-20,4.023367238601271667e-261,-2.978914548234338228e-12,-6.478238911902898886e-07,-5.459851769758283881e-07,5.001198760902740397e-11,6.467094734438023232e-07,3.525054618010973629e-44,-2.420704310247347659e-18,1.429135761266179293e-10,1.781842331388891379e-08,2.576721830379723634e-20,-7.825398959072172398e-08,1.761785283437298830e-17,4.562203609379614847e-08,1.622875758314131780e-11,-1.437333911106734637e-95,-4.752964717018009483e-12,4.942142496184423692e-10,1.830253452454426244e-50,-4.882460772089467274e-08,5.329377174908711670e-08,5.197370358426617405e-22,7.718597644479614802e-12,-2.506505439195413124e-14,-3.309337049149909278e-14,0.000000000000000000e+00,-6.305927508259255630e-265,-1.622168582569269289e-270,3.011849322752849108e-11,1.151847534295748524e-61,-3.402493470595921551e-12,1.701821548607820494e-10,-5.729107774122595455e-10,-3.932400036183995017e-08,-1.228359870304926118e-08,-5.614080379298296803e-27,-2.073330923529598150e-12,-2.538828565580262855e-13,-6.126468439286810272e-50,3.617307738448827704e-19,-1.234678628576312418e-07,3.069374038044410376e-262,1.446358786191347881e-21,7.314567271724365901e-77,-5.936085030038510375e-08,4.709882294716411324e-08,-1.996339824322817754e-62,-8.779840265014828030e-09,7.392370989628162387e-08,8.315854928572086935e-10,1.645942628523600035e-13,9.670738088379019097e-44,-6.206577616582081257e-17,2.713763577637577053e-51,-1.052591847929934518e-08,3.600754924391060071e-08,-1.950157533016693959e-09,-1.582563927809060646e-12,4.276475346658181917e-09,0.000000000000000000e+00,7.293303413472477208e-08,1.539946198485621837e-08,6.703216131187670383e-52,7.359832768778296181e-34,-4.233028676729791208e-07,-1.866988521643923816e-07,-3.395186196095245700e-09,1.739638453614000524e-11,1.692028057545659211e-10,-6.091041877284014072e-11,-1.143745896518036235e-08,6.593597608871121020e-12,-4.945603175173234018e-08,-2.398100997376119240e-07,-1.347012724503962284e-14,0.000000000000000000e+00,5.132100973347305162e-25,1.259651760619620812e-06,3.141873237675006960e-08,1.411876013110854249e-08,-2.750602387453077073e-09,-9.340385766897175818e-07,6.607159187978730604e-12,-2.442571925982300121e-07,-8.238697089941249896e-53,1.194138253978865754e-09,-9.853282837504878289e-07,6.416803565884410363e-11,1.403914463504505244e-08,3.761287523715563853e-09,4.466898761791758933e-10,-3.449813381869116093e-10,-6.140090630980983117e-11,4.054316383687846028e-12,-1.175905754418335334e-06,3.487297209328624418e-07,2.568665966157932560e-14,7.635243973341978147e-08,-6.914742964926823387e-09,-2.291488521718666647e-10,6.687099486933315469e-07,-4.544573569176217480e-10,2.241869627226903259e-07,-3.182175066259802385e-09,5.127238626961004589e-08,7.502848491826578173e-08,-2.271042926176747294e-10,5.445820610703334455e-09,8.590558351775862775e-08,1.572514656759904748e-07,-9.421712718653645372e-21,-5.318955959916995949e-15,-3.204373115756341785e-09,8.821381703758648118e-82,-1.284589872313942124e-07,-2.889666329879809770e-14,-6.573992947958785666e-08,-9.480599691775113281e-23,1.620592102869325726e-07,6.422484317050591173e-122,1.628222423249949777e-21,-9.332698683749879868e-08,-2.413842030179382599e-07,-1.355372135216039209e-18,1.479260722419917217e-07,0.000000000000000000e+00,2.551018500385124189e-51,-1.127737190457449976e-11,-7.576752125553488457e-18,6.656095092737459832e-70,-1.088508548891682936e-12,6.349586385826781085e-48,1.802746088010982698e-07,-3.922309606570438303e-20,1.007578256492297852e-07,-1.593070450479583705e-09,2.950286507041365190e-07,3.307348514598201250e-22,-1.259346197200088522e-10,7.473514929451389895e-11,-2.613384611160586324e-17,-1.519072723194152234e-08,5.922442396065815750e-20,1.395028944889080835e-16,-2.040009385204820938e-07,-1.262035214625653269e-64,-1.394895375539752434e-11,-1.117434951540567303e-07,8.458091862874274312e-14,-2.917375105893830465e-15,1.366401060353770406e-11,1.808841038555098189e-86,8.012719610368307891e-12,4.974569451304942816e-51,2.854267302504652515e-10,8.300968422748354028e-17,4.250668421232775134e-12,-1.429229976781908203e-08,2.659692221872613184e-77,-5.288651267789628613e-30,3.550159220134571854e-08,7.700375633738017071e-07,0.000000000000000000e+00,2.354620219309815004e-08,6.060735951608790245e-11,-3.015726790898983456e-17,1.093309331477568182e-11,-2.072077476770507067e-08,-1.396094170639371209e-08,1.567835813439721370e-45,-4.491306194027790229e-11,1.089683511790386526e-29,1.378415903940371938e-11,-1.863927089823056476e-13,-5.269255890316629594e-08,7.594312424727521227e-16,-1.265316839874969760e-18,1.333277262176277515e-07,1.427199536361513105e-14,-2.153015601095416080e-19,3.091371419185440966e-14,-1.248556538138719623e-16,2.640473694246130343e-07,-1.824104852685550039e-18,1.361413431616560541e-07,-2.706122545687293021e-10,7.370719674393380852e-11,1.254898087244563865e-07,-3.800351580866745707e-07,3.247180840460734010e-07,-5.517360838798988924e-08,1.102346869939865147e-10,4.768005922237868306e-08,-1.393562694135783983e-11,-2.749209752857002927e-10,3.096162443368403169e-12,-4.949566023209443151e-33,2.480572228785499252e-07,1.337040130397025897e-07,2.620502925947819772e-07,-1.069660290725608714e-07,3.439252107945950417e-08,-8.535326237165794745e-23,-3.031049386422460299e-07,7.551181896048250557e-42,-2.453929293401299764e-16,-7.245604311977333327e-09,1.160532038890580325e-07,8.399910559232522095e-07,-1.502663765680804249e-07,5.944937431873578847e-10,4.556222196562973821e-08,9.889249268740128863e-10,7.367112642742782700e-20,-2.653079836693483845e-07,1.063030466331398074e-07,-1.621394993303637643e-07,-1.569896747927767865e-19,6.338139196273118174e-07,-1.008376734532325205e-18,4.859923510060824383e-17,-3.732007759296969958e-07,-2.986787289675016822e-11,2.136464676842994818e-89,2.220230836877221661e-30,2.284871213576726163e-81,-1.596501577360661956e-07,-1.802014581228013532e-14,3.961933620524386169e-10,-2.879650518898024113e-08,6.351207385237953266e-27,0.000000000000000000e+00,2.711150517356171475e-07,2.404666144212727669e-12,2.055157768024880836e-09,2.909472488742703150e-07,0.000000000000000000e+00,-7.398914410395248505e-17,6.293601961177896078e-08,-7.740362855460874201e-08,-5.284133583561017929e-08,-1.005133977406453103e-07,-9.252058718648753352e-14,-2.958100213716879801e-07,1.773018721939637862e-83,-2.192460025718361222e-08,-5.334620861593348367e-175,7.394408665391769311e-35,8.244004977687251170e-13,-8.806951376416614813e-48,5.798124448153952674e-12,-4.617439696006350728e-157,-4.983149076200838061e-22,4.502560485399804422e-16,-4.169334848443648107e-09,4.553328163083389312e-07,-3.606341040807491786e-41,-6.779814753666433745e-15,-4.505762357924828554e-10,-1.866691406761497350e-07,-1.804111655017797269e-07,6.932637102516136914e-08,-1.600463793604905884e-14,1.909030463546861068e-07,-2.919863633562168140e-29,0.000000000000000000e+00,7.029964198601255869e-09,9.454944709633767807e-08,-2.084617632646703912e-07,-4.292522008821923782e-19,-4.036283863859268093e-09,1.339379667522023863e-17,0.000000000000000000e+00,-5.031484487345392267e-07,2.679969458510913451e-12,8.592986354619691473e-14,-1.368610076912179169e-10,3.831452811519269737e-07,8.888670631075610393e-07,1.769857923432621208e-07,8.829568925348710550e-22,-3.123172384743888156e-07,3.738874879469584939e-07,8.787990560299616378e-09,-3.996933404424945914e-60,4.181823679326387323e-09,9.011094315960266986e-08,9.011348706108916830e-08,-2.334285282147679620e-09,-3.300019785647843874e-20,8.731457625026745673e-24,-5.858154703165509659e-13,-1.317558090107164763e-07,-2.716054261991637571e-14,3.545032452591995180e-12,-6.274765717685520161e-07,2.767817901588511915e-08,2.885833648038864994e-07,0.000000000000000000e+00,-3.230795546104887019e-08,0.000000000000000000e+00,6.396154240885438372e-17,-3.344607363665895694e-18,1.921387975531406774e-09,3.756565061654252524e-14,9.848180521567160717e-09,4.137591523869476939e-14,-2.099442394401559341e-10,2.863378859914995640e-07,-9.274013845602569723e-16,1.255177062307447102e-07,-3.003942570673504374e-07,-2.379175720674986190e-15,8.463509635785754837e-26,7.069454808654811223e-13,-1.023236937438922067e-18,2.876954306863247472e-275,0.000000000000000000e+00,-4.807158611379903757e-08,2.874737456976566898e-19,-1.886151480074891074e-08,6.510605678758963130e-152,6.505649143249514898e-13,8.949399700596857303e-12,-3.936176112749860862e-07,-3.569006225722099371e-07,-1.286611266245354744e-27,-1.756509088302844350e-13,-6.107189843985395630e-56,2.617722359107137814e-17,-2.884143601070836836e-09,-1.631761698800155819e-13,2.452972149021280232e-09,1.184931209779255691e-21,5.389805695409602112e-07,-3.624273312133464398e-08,-7.963542911194429700e-09,6.179588763185775966e-08,-2.579572368995978263e-15,6.414740535543253702e-45,-1.096060476895577751e-15,-1.088789470514403126e-14,-3.002925702012035078e-08,2.448648327972693665e-09,-5.480588661456551048e-13,4.838718716994734122e-12,-2.090956241497958107e-09,1.382045315522815539e-07,0.000000000000000000e+00,1.400522589043354394e-07,5.319086488756579482e-46,2.047804651118503805e-18,-3.882391129971913191e-21,2.004538500660929021e-26,-2.855864328812116854e-08,-2.118582865338867134e-09,-1.881761322076686090e-07,-8.041374342236747213e-14,2.149345558064670231e-08,-4.597267140419821319e-09,2.280672844050419418e-07,-5.329257496422611533e-20,-1.338366261682386923e-07,1.416428418497199175e-11,7.179777451576581896e-08,1.978507565577026459e-113,6.748004170558575288e-27,1.719637270236042468e-07,-1.630964404265694465e-07,2.012261197766875708e-50,1.958770911727262044e-07,5.082174124607991716e-35,-4.373119920152639103e-37,3.299765415709896546e-40,1.238995405223979431e-13,-8.378787026876636047e-08,2.296488228891135276e-07,1.496699209126003765e-06,-1.570325229948410573e-07,-8.911072722294120122e-08,2.415419672370119506e-14,2.273766647149004502e-08,1.842625287041416414e-210,8.831284220425959227e-46,1.267143125920741235e-07,-3.059543686358342194e-132,2.783033993259645283e-07,-2.226554308511628175e-07,-2.761311483069711527e-07,-1.793398207030760685e-95,1.294954172421897325e-18,9.723356941476324593e-19,-1.531782511577185066e-20,0.000000000000000000e+00,-4.293260104720212746e-12,-2.443901346712806150e-08,-2.361443607859032723e-19,3.915703919336308369e-08,-3.405337118773435392e-08,2.088631880378096223e-21,2.916814362500090940e-12,1.840778153449020666e-16,1.653436835954547019e-07,1.458556507657106200e-156,3.007046460708185680e-33,-3.205533085436733812e-12,7.364287702442345081e-08,-3.133724197498130266e-08,2.596109304284032139e-11,-1.362081577827779311e-21,7.561597142823950465e-10,3.543584949756541538e-37,1.146928712656173039e-14,8.790449879902523690e-21,4.243947724976930770e-10,-8.182922880764922817e-08,1.884782563316288160e-12,3.941665359175169595e-12,2.540684892529216419e-09,2.242412659399894377e-08,-4.574356073709262472e-08,-2.042884033672149829e-10,6.395765774432530752e-17,-4.497878978939345918e-07,-4.218162116781169335e-130,5.439344784453898477e-07,2.815370250851363665e-07,1.637413522798921719e-77,3.963038908191903038e-14,-2.161344214005225777e-18,-1.293998585075160941e-08,5.582087402479958306e-09,-5.582825887714921516e-08,1.993308202683192677e-07,-1.714398162205954919e-46,-7.224473868599627111e-09,-1.873072557655158110e-15,4.021614626873122379e-07,-7.917240105293876670e-20,-1.984982606588035172e-11,-1.304744038795789048e-07,-1.102108279491081477e-07,-1.297779378050239931e-10,-6.120710903034489799e-15,-2.354240365291180890e-15,-2.977925949483227509e-51,4.783591558908495773e-16,1.336282568171195679e-07,1.890778958058447893e-07,1.972378019996267035e-13,-4.599434553384151932e-07,-1.519467105150260615e-158,1.620472265659744313e-09,4.365856747690993495e-07,1.597029055175706236e-10,6.866497788070017350e-24,0.000000000000000000e+00,2.094580013568171099e-91,2.633690959205199444e-40,8.474817151773381166e-08,3.339206277384933907e-08,-1.219941048028325517e-07,1.162705595365813111e-08,-1.662582704337029239e-07,8.305262082620442752e-08,5.532926062720994149e-09,6.771161712828088929e-11,3.747420637051538043e-15,1.646377101507074346e-13,-2.533383104794075734e-08,-7.418724720992159702e-12,-2.096346842352660987e-09,-1.191818548093719553e-09,-1.535662585622645311e-18,2.780145612725862752e-97,2.822080915381772532e-07,0.000000000000000000e+00,1.979799793389779730e-39,-1.761751174602170383e-09,-9.276781793474709851e-08,-3.158765352053478774e-09,-9.460779796918853564e-09,-7.781428661839292452e-10,-1.746274951742577075e-08,-2.576280377034307359e-84,1.091369468230621489e-06,-1.185601906902132359e-13,-6.647100236773181488e-07,1.673167792485911545e-08,2.142081870107391583e-07,-2.230205559294288013e-08,7.227786632596874802e-11,-3.044459440435252821e-17,3.072245061049199673e-07,-2.694560849551817049e-07,1.525477233749386930e-06,4.605800406646479503e-14,2.774091716317071641e-08,1.739291835239611054e-07,3.180634318985329036e-08,2.496402713895982467e-54,3.633411907723726031e-07,-1.880796964777189620e-08,-3.190590926141548512e-11,1.938862831828704421e-13,-9.279478918636714475e-07,-5.470095229369864697e-44,6.041437112349450959e-38,2.137402380140369174e-09,-1.567803168203128130e-09,8.895382022561856256e-22,3.929918928317808036e-07,-6.819644086477331645e-08,-5.317174293232026301e-08,3.609446971532405077e-11,-3.422082521274839680e-07,8.179758699029575165e-09,-3.776319840291266208e-15,-1.383438890113702085e-08,-3.608537597733056617e-09,-5.668861161462928370e-11,-4.150601696263789486e-07,7.441600888161971120e-173,-8.046512445408962224e-11,-2.369066215949067855e-13,-2.076979644574245391e-07,2.286742101695182067e-07,5.713426945914956120e-07,2.121491437581740546e-08,-6.223736597737749128e-08,4.343740411449527031e-74,6.612797111191975600e-08,-9.932566963748225700e-11,-8.854970652517981964e-11,3.588997216520128232e-11,4.044196864766628415e-15,-1.100521934200945814e-61,1.729210853559514631e-12,-3.262740617290345444e-08,-1.025418485901935098e-07,2.724798157655942771e-15,-3.837065916272667631e-08,-1.499999226671048052e-68,-1.916350967945429329e-51,-4.022965340611417349e-88,-1.315206133990480237e-07,9.021596399667982581e-07,-4.089052028500334417e-08,-4.312760822582664433e-07,-3.574410255566370487e-45,-7.966452976617081686e-29,-1.451242323521849427e-52,-6.599804086018334090e-36,-4.621166727124065587e-28,-8.501828506688726913e-09,-5.248868155153859029e-08,-1.240775674662935949e-07,2.949777728470749051e-70,1.621747959223508934e-14,-2.252453397528744241e-07,4.230784527028266801e-74,-8.290333310324180345e-08,3.186505306486428655e-17,8.427885527132173596e-124,-2.042746334953336635e-29,3.958746941545857303e-11,1.067956616515890878e-12,-6.025328279249891062e-53,5.067320743581585548e-11,0.000000000000000000e+00,-9.526465823003979200e-31,1.059194939086983871e-07,-9.672133427666325169e-08,1.045408860644097812e-07,2.797220523816303122e-37,5.635116339426234319e-11,8.354980245330443367e-91,3.445980987283411167e-07,2.604356280618381887e-09,1.613637724444323988e-07,-6.552506153818009036e-09,-9.929983311447130816e-88,-8.693903622832875564e-09,6.733973761731682278e-13,-9.332202056634995156e-13,2.134307070735757929e-07,0.000000000000000000e+00,-2.622017288023961382e-12,0.000000000000000000e+00,9.810861853064264348e-07,-2.002658668774912777e-08,-8.171544083994264170e-07,-1.636187226883235120e-07,1.696318437021094773e-44,-9.941343527116547006e-19,1.163626862182779150e-11,-2.257132106123462305e-19,-1.982461703048033776e-30,1.985392479374553737e-11,1.267340565326014461e-07,0.000000000000000000e+00,1.017583422813457195e-30,-4.123424844251147134e-13,-1.644598216110601087e-158,1.035453597518476499e-14,-9.484321290279090382e-18,8.437891896784988316e-09,-4.759757752260714701e-08,-2.158841937130838931e-11,9.645987435625784811e-49,-2.130897248644046771e-13,1.606418540628502149e-11,5.145787277461860927e-30,3.517639379183605621e-17,4.006029269092387824e-07,9.411762885633703175e-08,2.795025532498717991e-09,-1.555208898846224442e-07,3.510272685644159906e-17,7.845594891624538200e-16,-3.784309145146103289e-07,-3.515560246559046041e-07,1.024622831083605997e-21,1.811223246624449089e-09,-6.438060031864153668e-32,-3.762175776441092261e-07,0.000000000000000000e+00,1.184812234090013884e-07,6.532791692500701636e-10,8.028267188010136284e-19,6.023744056144129024e-08,2.672065127746582094e-33,-4.658877160438571273e-08,-5.572630310605433294e-09,4.599363297249746251e-31,9.862159474436044832e-08,-1.503758471833870240e-07,-7.109841628526740807e-16,-3.365190789387796144e-08,3.466284588287710780e-14,-6.171990412851579131e-08,-1.697592157460579815e-07,1.450711173121738772e-11,-6.293992434064772267e-11,1.382350723607698311e-08,4.070877507191681541e-07,-5.057043895516567598e-140,-6.756910180470744626e-07,6.164804375913590918e-08,7.810029156536096964e-08,0.000000000000000000e+00,4.288935955822305316e-07,2.251331206467058399e-53,3.114373207416667875e-11,-1.042965566539838225e-19,-2.255557416973062519e-09,6.607181975591944236e-08,-1.416483243961194952e-17,5.541741354424299879e-07,-1.821904575906304946e-14,1.048918860844425079e-30,-5.457888203210784929e-14,1.171507018365456225e-08,1.182944951415971350e-15,7.890256079085456053e-11,7.805696692727471055e-41,6.172749256721685559e-14,-7.542301865843253720e-08,-1.399069813731571723e-13,3.722625035394010935e-50,-5.269848432732268254e-08,-2.947851737260131111e-09,-4.605063814949437825e-105,-1.371049965531690058e-106,6.837610450420533149e-08,-1.171618273234850315e-12,8.257245989813921339e-08,7.604032258085580576e-14,-1.743781728458148163e-09,-8.368023021814242546e-07,8.691160812444026603e-10,1.052735805129033406e-09,1.181253506429320534e-07,-1.894828625639399218e-19,-6.501102730916789015e-25,8.283575346438427684e-09,-1.195656540735467217e-06,-2.505535945468460061e-103,-1.257528948040046625e-12,7.904026156007645170e-07,-5.800119082349742359e-84,5.725587146115344152e-09,2.078246922439060195e-59,1.955190756202666889e-07,-1.252246027710854810e-12,5.117411362560005080e-07,1.528636882486103024e-07,-5.656765560218452785e-11,-5.725489936904741419e-08,-2.930268411813356188e-07,1.436513071138263091e-10,2.212968016147413338e-08,2.925551234605687018e-17,7.874092294912866273e-16,5.778565810635244002e-08,3.097442695694409017e-16,-6.766421708370518150e-09,7.583512715339214468e-11,-1.892149527135252041e-07,1.244257374105123205e-18,1.698787452970780228e-08,-4.339109954952485657e-08,-3.045631683024508925e-17,1.242120349317631006e-07,-9.014156481199589947e-11,2.403488804112072592e-11,-4.470409582199481909e-07,-6.928268755614418499e-07,-1.326887197117483391e-43,-3.812635606036355523e-07,3.067663227433105457e-08,-2.133577093011971343e-07,-2.186394619949405037e-21,-1.997831230565973091e-85,-8.806207639146967136e-07,-1.874321918873504511e-16,3.245364622359568135e-08,5.109751241514424312e-07,-5.294748062800050805e-12,3.247206079634028970e-54,9.919753020694137356e-53,-2.823261937569989977e-17,-4.344409356616656280e-09,-4.490253256113157045e-42,-1.066042906704857106e-07,0.000000000000000000e+00,-4.800937246220630310e-10,-2.695734174647767060e-15,-3.389479784430371873e-75,5.971721155171271063e-09,3.753795324051364543e-07,-2.566878980805954720e-08,4.183550188861363710e-08,2.468252907432662312e-07,-2.314335930403602141e-14,1.435800870614860064e-07,1.628999592904442042e-77,-2.754656493533427160e-07,-1.363048167914015356e-179,-3.091186572505667681e-14,-2.652005675924428207e-13,1.748164242475105933e-15,2.152436794106190712e-27,1.235953845524835308e-14,-6.194431023094991383e-08,1.069841809298109144e-08,4.922559413545012037e-08,-1.971719287003023137e-08,-7.188088707577031515e-07,-5.123667384738785651e-09,-2.418049639703732283e-21,2.445782051468395511e-07,-1.595817642781152248e-09,-1.383227059679421649e-07,4.551077546743043564e-07,-9.128532404468390018e-09,-6.497039702538343235e-12,-1.002546117151277739e-07,0.000000000000000000e+00,3.320275991278983767e-08,-5.251484681821138526e-10,-3.089574238172217857e-07,1.322292134255320399e-14,-3.762478850136847986e-50,4.690726857866331793e-15,-4.140543021537476701e-07,-6.187322129114434154e-17,1.718596440403557485e-16,1.853783905666553994e-07,1.513981174033746754e-45,-6.419173275973463867e-07,-1.616996293273850078e-12,3.817579626459040383e-07,2.705167398102732974e-11,-7.361178344866364236e-08,3.488453858724994345e-08,-2.443259080302006593e-08,3.215032473966394165e-09,-2.458346986472326443e-116,2.083153240700578373e-08,-1.008151856603935643e-08,1.382105261464722993e-08,-5.421214769305418071e-101,3.732311355335802016e-07,-3.990996740686119951e-187,1.675072758408052341e-08,-7.913232345623247653e-08,5.559891272309323651e-10,-7.322086168863480920e-10,-9.399514851395543521e-08,3.313987334230975321e-10,1.836005151241394983e-20,1.362571284777146592e-07,-2.501482190210402435e-07,-3.209003427152430555e-28,1.630475703178675609e-09,1.698879329926426869e-150,-8.903601235062116779e-169,-3.095810337147602250e-23,1.214177961765879597e-13,-1.227482953777015370e-15,-1.158640352976259456e-13,1.192855849588704130e-07,-1.738520357659238249e-22,-2.018350011767208024e-08,-5.280937972144403223e-08,1.120194638682508391e-11,9.078162180526314345e-10,1.856777713654496160e-91,1.331555197180580256e-11,9.036934120763856202e-11,-2.671094842323497999e-09,2.462214879993956893e-13,-3.530868515672668910e-08,3.586885895532637439e-11,-2.266247127487841725e-17,5.731917358111605262e-07,4.275154099862222348e-10,-4.811766091767095369e-15,2.048854263038527088e-17,-1.325990111404714665e-10,-7.840515854516622505e-10,8.043547316965529339e-09,-1.649503350689872253e-06,-1.365855207523257786e-07,9.120632388026218857e-24,-1.011927005758249946e-20,-2.368272567579937530e-07,7.084108241360363235e-08,1.025590064752113073e-31,3.564637859480881907e-09,-5.415902607174657330e-13,1.625560042795856038e-85,7.595365035895480909e-08,5.124161639857873563e-07,-1.118473400549386386e-29,1.016634489945108214e-11,7.345510069854419966e-16,3.428637935713745740e-14,5.442160696727607951e-08,-1.549124990892216345e-08,-1.425986212921810503e-19,-1.376117658346352249e-18,3.879414118844685842e-26,-3.155454344860993038e-10,1.419061033342031128e-08,-2.073803986853372383e-17,-8.365302987167964711e-10,-8.616896299115343312e-12,-2.459196830444774056e-13,-1.154820299968698840e-06,1.745903793650460533e-16,2.228065506658685347e-08,-3.049647259446567765e-08,1.402056041448867844e-74,-1.225076250859481170e-13,-7.109446806798042939e-14,4.591142453819754165e-07,4.214068050271668515e-07,1.856585670270709219e-17,2.618657536700761852e-08,2.317368050362411268e-12,1.405484024736704974e-13,-1.921082470929747122e-13,2.588096997092917848e-10,0.000000000000000000e+00,3.271564256172567830e-18,3.373591966288130282e-15,1.466050822299301698e-10,-8.303599019843170201e-09,1.666347154556202179e-13,5.756301641948610804e-07,3.153928350130414516e-17,8.645062727210695567e-34,-6.234892129896932324e-70,1.826319419822274011e-11,-1.454398738039750108e-09,8.100671521178381044e-08,1.198792351580722379e-09,6.884424711959168208e-08,1.066148443890920223e-146,1.867383828503743304e-09,1.040899278297203208e-20,1.453149048194339587e-06,-1.263217300213724522e-09,-3.591303548445521341e-08,4.598872334198716036e-08,5.498826326236877991e-09,-8.964484105805797942e-08,1.714808470970915715e-14,8.619202800734680442e-13,-1.783169061165317598e-08,-4.204755415451336513e-08,5.722657361575810918e-12,-2.639133788650020037e-09,-6.709986413367491400e-53,5.056324248067033136e-08,1.866999501845918658e-20,6.005247851267755800e-08,-1.918661435122862096e-07,2.968409645392715535e-12,-7.264923544848717369e-59,1.047653235810999448e-07,-2.087182055961700771e-126,-7.519431624858805062e-18,-5.387405055291139190e-15,2.330756184479654239e-07,3.359623631572027110e-14,-6.870902496608112081e-10,-3.438319761076334119e-20,2.359937044838199739e-09,-9.298021392774158945e-09,-1.419687691103789896e-10,-8.237920961815625006e-10,8.556299289299285227e-10,-1.154541917508184226e-07,9.409567584511120668e-14,-4.989821733908006856e-22,1.045157317093394758e-15,2.883169052782385424e-15,-8.026071559958880224e-15,3.107617139522997823e-12,-1.417384549745711365e-09,-1.080597112031620435e-07,1.255242134126296576e-10,8.434816699650926543e-11,9.206285607630418781e-15,-1.125911543390843578e-35,9.088057909235188294e-15,4.302611725404102896e-152,-4.994936506896006079e-09,1.639532837239746308e-07,-3.971965100859083396e-13,1.768638427273768088e-08,-8.190401603910310573e-15,-3.312049139022207426e-09,-1.549108409207826073e-09,5.887627039068487627e-10,-3.464688867932816265e-08,6.382779112427547404e-137,-3.154731147183254306e-132,-2.165585841848332037e-07,2.511668161906389618e-08,4.697597463815733602e-11,-8.780467368797430397e-10,3.494579321322013304e-09,1.550703517650916700e-27,-6.002782542147667309e-08,-2.270213615147116438e-12,1.054397530111419737e-10,2.351030912054655200e-07,-1.012476026009367074e-39,5.026890893382369062e-08,6.185183831973026598e-09,1.546940477813559254e-08,-4.197526045399242379e-40,1.514812479250993382e-10,-2.377603294559506177e-07,-1.642977540702761325e-09,-2.098156080091353678e-07,3.778930763641476089e-08,-1.779259867927892423e-23,1.925282870055145525e-08,3.621330704176416053e-07,-4.050198864882932585e-08,-8.919391682345991199e-08,-7.262459510176246393e-09,1.854821752378697542e-10,2.120595554184038600e-12,2.645927401617932475e-15,-9.606296667279383672e-08,2.898294468118726205e-17,2.567418606870510945e-17,-3.094059104650603716e-07,4.836639252025641758e-38,1.125833050622874648e-17,-7.043269261908681794e-16,9.044103490784182173e-10,-2.465962978784693470e-11,1.089991566459941562e-08,1.435259293245514384e-07,1.111591857705010399e-15,1.524807939629829872e-07,2.173718194597153806e-07,8.626749721445291096e-151,5.994970961999306205e-76,-3.274487632102914489e-25,4.186415299524632833e-12,5.070587067939796937e-08,2.133927058115223531e-42,-1.795044407167858607e-08,-6.060503375645607848e-18,2.303721040600986049e-14,2.535821368768264891e-48,0.000000000000000000e+00,-6.486336063151073855e-11,-2.657619541177043465e-09,1.594194568463816975e-08,1.167835342086679368e-06,-2.723228491379799640e-08,9.148106373944267981e-10,2.074128567003764050e-07,1.513924194558338081e-18,-2.554294779263011098e-07,0.000000000000000000e+00,-2.061405927822871881e-09,2.141256896869268900e-07,4.948609966652230413e-08,-9.033367335497980170e-07,8.473746003217692952e-08,-1.563922087209681022e-19,-1.640165604740132668e-07,-4.220866957228922402e-07,-1.018624254826303368e-11,-7.180872744130593435e-09,1.110823350969726713e-09,-1.198201208642115683e-09,1.786542785736681071e-07,-3.808603984399934857e-11,1.277088984694176617e-07,-5.721126080275158098e-10,1.127459377317871622e-08,1.288122706526835407e-20,7.023213758310645005e-15,-5.941131526748235421e-07,-2.294125155768732483e-48,-6.811206250421075607e-09,5.770828617052021526e-13,-6.826079507579027001e-19,7.330964978727117222e-07,3.455303471550913480e-08,-2.396150113209620296e-15,-5.769532505880952649e-08,-7.902050514292043798e-07,1.053529304463718503e-10,1.522551376062493928e-173,-2.985198449676219097e-15,-2.101005865213362756e-07,-3.001948771494613454e-07,-3.486939874250466333e-09,-3.046800219332537836e-19,-2.683517225344915975e-07,-3.342684098179952242e-23,2.896667736145249107e-07,1.735662299036933972e-09,-8.069281154156062260e-11,4.571884240351885904e-18,-3.130527547973685453e-07,3.134748286486698526e-08,-7.784192929520485462e-07,-1.940610227747793760e-07,-3.893619356102956591e-16,-1.595279142781811873e-07,1.898131738707500279e-07,-4.286205118040554849e-07,4.060446294711812515e-19,1.786907570950776612e-09,6.011348421688629731e-12,1.251311573536623808e-19,3.086617791464446980e-07,8.331974500109267107e-11,-2.855806037176589342e-18,-4.900032010298287930e-08,0.000000000000000000e+00,-1.946780959576769869e-11,9.726552226542977020e-08,8.549144339968686672e-11,-2.516699145284158217e-40,2.455928157806004348e-28,7.392627868663249568e-64,1.079975610689899392e-44,1.052804265343534485e-12,1.189950006790245986e-07,-1.078629432391812026e-07,1.823514545980716423e-07,-2.036733564758530715e-152,4.446047967092776695e-16,3.467506194694608841e-105,2.414729785346040016e-09,5.057178549781847082e-19,3.774257375422499852e-08,-2.422364274877402254e-08,3.190441825794912520e-74,-9.070626935718965781e-13,1.441707098252752476e-09,4.248489625483190901e-13,-3.519081417311123614e-09,9.895281045869825680e-09,-6.096900742460338279e-08,-4.020936367670235686e-07,3.472179817744455489e-07,-3.481552648203965019e-07,6.371758150712602612e-09,-1.301409878011799278e-13,2.610273353866991673e-13,4.594600541394037349e-28,1.368734484639063580e-72,-2.445483976236150447e-14,-1.474331526034453344e-09,-4.380824688166286801e-13,-5.560898579641787347e-09,-8.371638096159857717e-07,1.047901761678346836e-69,-2.429503858212083825e-11,7.068379453550516212e-11,1.426550635936522760e-11,-7.246796661249814844e-11,1.063122569386299936e-10,-6.135801284424731043e-08,3.662056743781281328e-07,-1.652986094358851807e-07,7.149387159086175552e-08,-3.906781365632545328e-07,-2.188128854009234928e-08,-8.916030752235999169e-09,-9.587977502517114680e-11,4.886026577601471110e-08,-2.377491349488901005e-13,5.183598077333091181e-07,-7.596938969593383852e-09,1.808035622479133158e-261,-1.203645412679195475e-07,2.830409681297639623e-21,-4.069068450723976785e-22,-6.939536666936962854e-62,-1.449926926269763565e-15,5.257693758277331096e-10,-3.962322060040910593e-10,8.173583352818740630e-12,-8.873509119120243401e-08,-5.704286910822682036e-09,7.485112217410711657e-13,-2.313423742890142935e-08,6.118043515299721887e-13,-2.203969248325038180e-07,3.373437446138391827e-08,-3.565911140247127146e-13,2.607432705276974960e-13,-2.389652497624291783e-07,-9.625336091587788882e-12,1.147153113992842127e-08,-1.318317164045887260e-08,-2.645020352461238045e-45,-1.366977457907040732e-16,6.342439046579231046e-16,-2.981150996903960959e-11,1.380412930344119743e-12,9.240116160854793178e-27,4.155784994344453436e-07,-2.354869555517980860e-06,-1.174388232823111481e-06,-2.835789327309980005e-13,-2.280748258543675570e-56,3.030819717539373967e-07,-6.982402770529306257e-15,-2.708877493248719558e-08,-7.725259950048567746e-09,1.178690482526100463e-09,-1.380693422204019066e-89,1.354765003288605382e-141,-5.784443623376916719e-08,-3.534646968239904967e-10,-1.150314861908362407e-07,-5.936444372217851106e-08,-1.723243569700080880e-73,5.354094725346113524e-18,-1.412918457155490216e-14,8.641365475444954887e-14,3.923889348078326966e-10,-9.626001146313595118e-13,-1.622265006366804941e-07,-1.184313000216016573e-44,-1.941960574948002661e-10,2.407016725540390908e-08,1.356458514550720091e-07,3.960951035672550871e-15,-9.941275275019686367e-08,-7.043742429648645302e-08,-1.226704798614171183e-07,-2.760832631143951868e-08,-1.133721198430180996e-08,3.798014852501508387e-07,-9.340852644468847222e-10,-4.249579194189142094e-07,-5.623623750534795578e-11,1.015371744201204217e-10,-2.174699173693391523e-07,1.318375764481735304e-18,-3.482444928558139801e-16,1.773030205894897626e-24,-8.286265892195586544e-40,3.922606765505802218e-13,1.355384286197907330e-07,7.040769412846458863e-17,1.367068968212166605e-52,0.000000000000000000e+00,1.216532754934632289e-16,6.049586729507562584e-11,-5.316786406838251966e-09,-1.198027345965392850e-94,-1.786255951767933944e-10,-1.165873408159762367e-15,-1.115650000722952026e-49,3.201263521946622635e-08,-2.522743859829361477e-07,8.101453324110420039e-12,-2.908530707641603276e-14,4.958246667567199955e-09,-7.023598092410499124e-16,-1.707363022157798642e-20,-9.515995320190050842e-08,7.141064211669218388e-08,-1.580531641224022151e-08,-4.416830400354291898e-12,6.312364926152812988e-53,-1.564431544083330137e-24,-2.175906480289770514e-14,-1.000112389569873375e-07,9.253807183576934490e-10,7.959213755464120271e-173,1.824460575008889041e-39,9.406675626084196481e-20,1.691593358038145202e-33,4.915267400667111986e-10,3.407331626563019757e-07,9.890142691636310035e-08,-2.718745654124531512e-19,5.572812610890150344e-123,-5.035681767826816976e-12,3.460091650124658789e-48,-1.952348149372804444e-07,2.268326057898914186e-10,-7.540839508973820697e-09,5.747018552491818641e-13,-1.496259693034370469e-14,1.946781803030653800e-07,-2.273650837217589098e-11,5.846404169048751457e-11,2.540990691057610568e-12,-4.171194986885963265e-13,-1.031619158545266376e-12,-5.382257105898867528e-08,2.512246036262197600e-20,-6.558201478039586067e-16,-1.359949822987696520e-07,-8.234586176958697822e-08,2.361693160763343609e-13,-1.158260036988339330e-11,3.135100298155248063e-56,-5.391799628970648129e-54,-7.607062250288557468e-17,-1.141425946668104173e-12,1.913219394693365005e-09,-2.030189157191141199e-07,-3.319799132728059449e-10,-3.919749707713254052e-08,-4.840860341777556768e-18,1.429911480465289713e-16,-2.144027048430114490e-07,2.421729644017846109e-10,1.200459338585186786e-33,-2.190554289962014207e-07,5.339727209184480863e-24,8.171942609967604686e-08,-2.595518389132090370e-10,-2.436035910558666191e-38,7.723192853653168819e-12,-3.610494486183533511e-07,-1.112487092476636944e-07,0.000000000000000000e+00,2.409382920716782941e-07,5.657715223039291616e-14,5.630656066515278213e-14,8.356447510516763281e-08,-1.173262709477538329e-17,-2.557617061808656194e-10,-1.477071331625998027e-08,1.623011785637896055e-07,1.443835028565409381e-10,-2.254743351001968740e-16,-8.217185258879135086e-08,-1.079152288868889084e-08,-4.062794129261783760e-08,2.468653560210980031e-12,2.631386238027713095e-10,3.629579322937836152e-07,5.294087413619435794e-10,2.444206010735686998e-07,-1.555074216878854604e-21,3.695782572067490245e-07,0.000000000000000000e+00,4.746602654291468356e-17,8.733685814471589423e-08,-3.702467810279772513e-19,4.271364195774893736e-08,1.333450277964546031e-35,-1.366023576805568089e-10,-3.760300728341333329e-07,-6.086741723083605671e-16,4.423491733739999271e-11,-7.587954847084154622e-16,0.000000000000000000e+00,-7.512006272166151015e-53,1.720172952795083217e-08,1.727517175738275215e-11,2.746790819663496740e-10,2.709686270468516107e-14,8.881242296724916263e-16,-4.065408866985687261e-12,5.264765419147564589e-14,-9.302268198336720753e-09,6.626422813016005588e-07,-2.975321017977231015e-18,-2.017807908285520429e-07,0.000000000000000000e+00,3.371145303681560419e-07,-2.007402265689835393e-73,-5.965829317294744316e-24,2.073210982940735377e-09,5.770313090207310181e-29,-8.017847856692446519e-10,-9.829363403665387823e-14,1.464948672380246293e-15,-1.561260088111487476e-07,0.000000000000000000e+00,2.201328654996642767e-20,-6.572531722844384881e-10,2.119774069713805437e-07,7.160086277187037659e-11,-3.054290618010226315e-07,-1.459854165423961649e-07,-6.230182126645097156e-11,-4.683185327160982462e-07,-4.435285242850946086e-08,-8.724814178527754532e-08,2.178278688288102753e-63,2.140743645836561795e-20,-7.664234622725605796e-08,5.160283663494584823e-15,1.593953903184526126e-13,-4.885856454624211199e-11,5.190156416332994681e-14,-5.238029257472527717e-07,1.008787671548662512e-07,-3.027843773488432776e-07,1.685347558659474371e-10,-1.305878038406180701e-08,-2.209250097693698802e-08,-5.179381476346517700e-09,8.655562827489332133e-09,-1.041095124021993768e-20,3.560093496746713681e-07,-8.454188954746723414e-20,-1.477786742129694439e-09,-2.346836534697425696e-13,2.762275844597197305e-08,6.200071793175639309e-16,6.301860093018939595e-07,4.793873701603856939e-09,-4.285111533885942930e-10,-9.713902009978875087e-21,-9.614255539811681253e-280,-4.161098275141107012e-28,-1.145593672999103492e-15,6.455010334249881320e-07,5.640166899531077266e-20,5.440108368150326686e-24,-9.702009518130691770e-08,0.000000000000000000e+00,1.473870875099253514e-08,5.289562466374852886e-07,-7.921876441193130660e-08,9.665145495769423224e-12,-6.791280097477499527e-20,4.010307911758374182e-07,-2.280028436268587495e-10,-5.882271605012808769e-213,3.147384013628932613e-07,9.320770972335422699e-10,2.247557339889931234e-08,1.158242214145827639e-07,-8.560053438136837355e-77,3.778757862268140691e-35,7.463049310229701918e-27,-1.088843713991126564e-17,0.000000000000000000e+00,-3.537128582318153417e-07,-7.635980265670836625e-09,-1.232515842183697762e-07,2.545028140386528583e-12,-1.991208623715195537e-09,1.609352406299621567e-11,3.239334989014339687e-08,5.388308461415688850e-11,-6.541997825157970322e-08,-3.984961360198751391e-07,-1.334720360528645609e-07,1.228860687910036788e-19,1.723483152864046634e-07,1.423536033096918929e-08,-5.436939935333544601e-72,-3.049437145845912787e-07,2.989054656394486359e-24,-6.204116936391927392e-09,-2.621067369883173291e-07,9.192664320149282142e-08,2.327294991615642845e-07,4.560503193284779997e-35,7.567864152703296186e-38,7.665658937622863449e-12,0.000000000000000000e+00,1.465423702761523460e-34,4.085929838929708374e-16,-1.665713133238007671e-18,2.971270045567597183e-08,-5.886703693603996665e-11,1.521843388160574188e-08,-1.525803781845807969e-09,-1.611505549889197886e-07,5.916709869810034701e-07,8.102458494679273312e-17,-3.234323612611361349e-08,-3.502311847366671111e-11,-4.781072919965140797e-39,-1.149869814309842719e-06,-8.145293197438330846e-12,-6.198125115940854364e-308,-1.407929841350200009e-64,-3.805240993505652995e-07,-1.292725935413321505e-13,-3.870810888585212748e-11,-1.852405615961005549e-07,2.947952884988235549e-24,1.150799015905994469e-07,2.867077090926467221e-07,5.588870916132278127e-81,-5.001904236424994924e-21,3.081960014322737547e-07,-1.016510079236388721e-07,2.271894853502087907e-09,4.836336017400295259e-14,4.572330375331491166e-08,-2.230394895367494692e-07,1.788217150662200927e-07,-9.441420229191821137e-08,-3.522175749112759343e-12,-2.657232036275519918e-07,-1.588039524797614890e-12,-6.749995419437215185e-08,2.039295073308178654e-16,2.556233907785838781e-11,-4.197138350112397894e-12,-2.402029586541537727e-14,-3.413953634761400476e-18,-2.533683342669899830e-09,1.320643922749753532e-11,2.551063477008339015e-11,-4.276595171846096670e-07,-1.507068350663141146e-07,-4.323270283773460496e-55,-2.309560610997933364e-12,-1.286041416590548494e-08,1.901067567936760761e-41,-1.606089640226445529e-12,7.972731403221845986e-07,1.828511733448343781e-26,1.511167455733114749e-08,8.098374926906788565e-08,1.437346577688127198e-07,